tree
version=v4
num_class=1
num_tree_per_iteration=1
label_index=0
max_feature_idx=50
objective=lambdarank
feature_names=avg_finish_pos_last5 avg_km_time_last5 best_km_time_90d best_km_time_career career_earnings_minor_prior career_starts_prior career_top3_prior career_top3_rate career_win_rate career_wins_prior day_of_week days_since_last_start distance_m father_offspring_wins final_win_odds horse_age_at_start is_favorite log_final_win_odds month mother_offspring_wins num_starters odds_rank_in_race post_position post_position_normalized rider_drives_30d rider_drives_90d rider_win_rate_90d rider_wins_30d rider_wins_90d shoes_back shoes_either_changed shoes_front starts_30d starts_365d starts_90d starts_at_distance_prior starts_at_track_prior sulky_changed top3_30d top3_90d trainer_starts_30d trainer_starts_90d trainer_win_rate_90d trainer_wins_30d trainer_wins_90d v75_pool_share wins_30d wins_365d wins_90d wins_at_track_prior year
feature_infos=[0:15] [0:112.59999999999999] [0:110] [0:112.3] [0:14986500] [0:151] [0:86] [0:1] [0:1] [0:28] -1:4:1:3:5:0:2:6 [0:1796] [640:4800] [0:3244] [1:1149.48] [2:15] [0:1] [0:7.0471000000000004] -1:7:6:10:8:5:9:4:11:12:3:1:2 [0:84] [3:15] [1:15] [1:16] [0.066699999999999995:5.3333000000000004] [0:226] [0:632] [0:1] [0:60] [0:125] none none none [0:5] [0:36] [0:12] [0:103] [0:88] none [0:5] [0:10] [0:158] [0:419] [0:1] [0:41] [0:101] [0.002:9.0660000000000007] [0:4] [0:12] [0:7] [0:15] [2018:2023]
tree_sizes=6999 7006 6963 7015 7001 7010 7009 7019 7028 7029 7043 7036 7027 7033 6994 7055 6950 7022 6938 7037 7024 7034 7064 7074 6978 7025 7038 7038 7048 6915 7028 6947 7033 7012 7012 7041 7022 7002 7043 7025 6975 7000 6984 7052 7068 7032 6953 6922 7021 7012 7062 6959 7018 6986 6993 6967 7053 6961 7018 6984 7013 6963 6999 7020 6963 6989 6907 6925 6965 6955 7013 7009 7040 7012 6953 6963 6977 6950

Tree=0
num_leaves=63
num_cat=0
split_feature=14 14 14 14 14 14 14 20 20 20 20 14 20 14 14 21 14 14 14 20 14 20 20 20 21 14 21 21 20 20 11 21 20 20 11 23 21 20 21 21 21 11 20 16 23 21 21 15 21 20 20 17 20 14 20 21 14 13 13 20 21 23
split_gain=24553 3187.86 2856.21 447.956 439.994 390.184 348.967 128.025 116.652 104.188 85.2981 70.6476 64.699 57.0361 55.8351 48.3967 47.0708 45.5321 33.3798 33.238 28.6862 28.0672 24.884 21.4759 21.146 19.7107 19.4643 18.958 18.8839 16.4172 16.3988 16.1902 15.9453 13.3609 13.1047 12.9853 12.6749 12.5866 12.2829 12.159 11.6114 11.4887 11.0985 10.0501 9.82492 9.7038 9.39099 9.16857 9.16791 9.03749 8.96293 8.6864 8.57996 8.46244 8.3378 8.14888 7.73318 7.49802 7.41595 7.25435 7.15807 7.14598
threshold=11.875000000000002 4.5150000000000006 32.095000000000006 62.985000000000007 2.5550000000000002 6.7250000000000005 19.905000000000005 8.5000000000000018 7.5000000000000009 8.5000000000000018 7.5000000000000009 9.5350000000000019 8.5000000000000018 46.335000000000008 1.905 5.5000000000000009 88.665000000000006 3.5050000000000003 5.6550000000000011 6.5000000000000009 27.065000000000001 9.5000000000000018 9.5000000000000018 7.5000000000000009 3.5000000000000004 3.3350000000000004 2.5000000000000004 3.5000000000000004 6.5000000000000009 8.5000000000000018 14.500000000000002 2.5000000000000004 11.500000000000002 9.5000000000000018 17.500000000000004 0.51665000000000016 7.5000000000000009 10.500000000000002 3.5000000000000004 7.5000000000000009 4.5000000000000009 17.500000000000004 12.500000000000002 1.0000000180025095e-35 0.69615000000000016 4.5000000000000009 4.5000000000000009 6.5000000000000009 2.5000000000000004 4.5000000000000009 10.500000000000002 4.8540500000000009 5.5000000000000009 1.5150000000000003 7.5000000000000009 8.5000000000000018 5.955000000000001 3.5000000000000004 65.500000000000014 12.500000000000002 4.5000000000000009 0.80910000000000015
decision_type=8 10 10 10 10 10 10 2 2 2 2 10 2 10 10 2 10 10 10 2 10 2 2 2 2 10 2 2 2 2 8 2 2 2 8 10 2 2 2 2 2 8 2 2 8 2 2 2 2 2 2 10 2 10 2 2 10 2 2 2 2 8
left_child=1 4 6 13 14 9 10 19 25 28 24 31 45 21 53 27 -5 -10 50 38 30 -4 -17 -16 -2 -6 -21 -12 43 -15 -14 -9 46 -19 61 -24 44 58 -7 -31 -28 -23 48 57 -32 -8 -13 -41 -20 -27 -11 -18 -26 -1 -55 -43 -30 -3 -29 -38 -54 -33
right_child=2 5 3 16 8 7 12 11 17 18 15 32 20 29 23 22 51 33 42 26 -22 41 35 -25 52 49 40 37 56 39 36 34 -34 -35 -36 -37 59 -39 -40 47 -42 55 -44 -45 -46 -47 -48 -49 -50 -51 -52 -53 60 54 -56 -57 -58 -59 -60 -61 -62 -63
leaf_value=0.088696903894042167 -0.011162507392539264 -0.033201377841929169 -0.05590805396434062 -0.071049574387756304 0.043962869570136329 -0.0061322308256389511 -0.034864248979778224 0.031861718278800577 0.061776706001936091 0.038296814282720887 0.0065070287001746264 0.0077255956205777541 -0.019678027252877761 -0.070493751956266365 0.058597676337396543 -0.028482407566611065 -0.079566273202131332 0.044723864975554639 0.036264270384905893 0.023260797392017606 -0.036899671435102754 -0.040191675248449167 -0.0090310600801859122 0.073041118453919709 -0.053258431647358898 -0.0022238909865264648 0.003502363841271422 -0.018986984155409746 0.026433784224590098 -0.049488943251475064 -0.023277820621009877 0.026313672528351609 0.015146987607066786 0.053983393481279465 0.016068835218908891 -0.019859547934397596 -0.043438110502943793 -0.0024161622343213639 -0.025120468188892721 -0.056277637225436522 -0.010384728454393963 -0.044764178422808484 0.043504810634815178 0.043203292884147371 -0.034474055952578186 -0.049259472782455925 -0.0021697387011895678 -0.065216657060712141 0.026086419138090084 0.029258252772451171 0.046183209553413887 -0.087623587184331275 -0.023314919132709246 0.070530725784069853 0.082617433378649047 -0.054723253817419715 0.014699688483931446 0.0064684863117295075 -0.0084953767039792488 -0.023267958136572502 -0.03787889242543676 0.016036939413471455
leaf_weight=588.78808526601642 111.24585679266602 11.5538492500782 928.6020488338545 1862.4808565764688 337.40071224234998 173.73333654180169 158.95376267749816 315.5288873128593 2180.9944726699032 720.18393568042666 301.55382824735716 606.95082519296557 620.00673782778904 336.13920053467155 342.37772901915014 346.76732175517827 1224.7872902201489 608.91858989652246 340.3026415174827 101.62883749138564 1014.1205288642086 763.76471469481476 720.41983754606918 1550.4528550338 61.489512590691447 24.133255653083324 625.84187181480229 210.45223566330969 472.69437460973859 374.22721377387643 631.64341234834865 752.93793644430116 450.47875363891944 1348.383086818736 1165.2494648527354 452.21125663165003 219.59341362304986 846.89927058294415 167.70126319676638 762.87232958432287 197.09055168088526 589.47382135037333 167.92132876394317 17.018912890926003 295.0977184837684 626.021478950046 395.31539091421291 586.81519729597494 700.71359274024144 372.4402937181294 845.46619445504621 683.62613895814866 138.86267535109073 234.00989780761302 906.65569457691163 373.79403068404645 206.33190370351076 236.76727197691798 852.0388783919625 60.895066454540938 246.76996347308159 226.19875452388078
leaf_count=3558 1314 146 13576 32794 3101 1954 2063 3475 17912 7232 3860 7551 9379 4882 2855 4841 22742 5727 3525 1103 16313 12852 10339 11287 749 276 7385 2952 4896 6143 9581 8726 5867 12430 14403 6788 3534 12094 2011 13259 2456 9859 1811 149 4658 8628 5172 10517 7923 3768 8422 13108 1748 1792 5744 6737 2221 2609 11277 1055 3216 2804
internal_value=3.1801e-05 0.0414182 -0.0438539 -0.0640031 0.0633252 0.0204988 -0.0222444 0.0116223 0.0534889 0.032853 -0.0125859 0.0160932 -0.0336605 -0.0537054 0.0765375 -0.0098524 -0.0768633 0.0567533 0.0377371 -0.00219718 -0.0301279 -0.0488029 -0.01672 0.0704609 -0.0307976 0.0350317 0.00272866 -0.00512746 0.0184785 -0.0599985 -0.0263515 0.0212555 0.0073434 0.0511271 0.0196807 -0.0132203 -0.0297597 -0.00696737 -0.0155047 -0.0579124 0.000167868 -0.0449524 0.0314323 0.00713248 -0.0268763 -0.0463926 0.00382439 -0.0602095 0.0294451 0.0273417 0.0425823 -0.0824969 -0.035647 0.0831435 0.0802018 -0.0486815 0.0228951 0.00449697 -0.0105894 -0.0391573 -0.0327084 0.0239583
internal_weight=33793.8 17392.2 16401.6 8486.58 8494.55 8897.61 7915.04 5178.66 4872.27 3718.95 4288.71 3912.66 3626.33 4715.69 3622.28 3730.34 3770.89 4138.3 2774.59 1266 2841.36 2655.63 1519.4 1892.83 558.368 733.974 924.561 2210.94 944.366 2060.05 1827.24 2459.92 1452.74 1957.3 2144.39 1172.63 1207.23 1909.39 341.435 1723.91 822.932 1727.03 1208.94 265.34 926.741 784.975 1002.27 1349.69 1041.02 396.574 1565.65 1908.41 447.122 1729.45 1140.67 963.268 679.026 248.321 1062.49 280.488 385.633 979.137
internal_count=431149 170291 260858 146469 68450 101841 114389 62907 43214 38934 59178 47998 55211 77825 25236 52151 68644 36069 28913 14909 44520 43024 21968 14142 7027 7145 10944 30183 10021 34801 28207 29408 18590 18157 25933 17127 18828 26323 3965 29919 9841 29448 13259 2904 14239 10691 12723 23776 11448 4044 15654 35850 5713 11094 7536 16596 7117 2755 14229 4589 4964 11530
is_linear=0
shrinkage=0.05


Tree=1
num_leaves=63
num_cat=0
split_feature=14 14 14 19 21 14 19 14 14 19 19 8 19 9 14 19 19 14 14 21 20 14 19 9 20 19 8 19 20 8 19 14 14 20 14 19 19 9 19 9 9 19 20 20 14 15 20 16 19 20 20 8 9 19 8 9 19 9 19 8 21 14
split_gain=57746.9 10564.9 6333.66 2787.3 2198.18 1251.47 1020.5 877.673 799.251 532.306 379.759 367.518 439.328 254.903 244.055 220.87 217.489 195.717 181.006 152.165 145.501 141.972 132.694 117.935 113.975 112.299 127.871 168.909 97.8003 97.2685 136.129 96.5036 89.7339 87.6365 87.4134 69.3266 67.6209 67.2454 110.124 67.1954 66.9567 65.0898 64.1295 63.0187 60.408 58.222 52.8967 63.0722 52.4085 51.6603 51.6464 48.9419 47.8935 43.4717 106.627 43.0623 65.5978 42.6443 41.1428 83.1911 41.0272 37.9957
threshold=9.5350000000000019 2.7150000000000003 26.695000000000004 1.0000000180025095e-35 2.5000000000000004 1.905 1.0000000180025095e-35 51.085000000000008 16.255000000000006 1.0000000180025095e-35 4.5000000000000009 0.038650000000000011 1.5000000000000002 1.5000000000000002 3.5850000000000004 1.0000000180025095e-35 2.5000000000000004 7.3050000000000006 2.2450000000000006 2.5000000000000004 8.5000000000000018 74.065000000000012 1.5000000000000002 2.5000000000000004 9.5000000000000018 5.5000000000000009 0.038650000000000011 1.5000000000000002 6.5000000000000009 1.0000000180025095e-35 1.5000000000000002 1.5150000000000003 5.2650000000000006 7.5000000000000009 41.435000000000009 7.5000000000000009 3.5000000000000004 4.5000000000000009 6.5000000000000009 3.5000000000000004 1.5000000000000002 3.5000000000000004 8.5000000000000018 7.5000000000000009 13.235000000000001 4.5000000000000009 7.5000000000000009 1.0000000180025095e-35 1.0000000180025095e-35 7.5000000000000009 6.5000000000000009 0.11165000000000001 3.5000000000000004 3.5000000000000004 0.055800000000000009 1.5000000000000002 3.5000000000000004 3.5000000000000004 2.5000000000000004 1.0000000180025095e-35 2.5000000000000004 3.6650000000000005
decision_type=8 10 10 2 2 10 2 10 8 2 2 10 2 2 10 2 2 10 10 2 2 10 2 2 2 2 10 2 2 10 2 10 10 2 10 2 2 2 2 2 2 2 2 2 10 2 2 2 2 2 2 10 2 2 10 2 2 2 2 8 2 10
left_child=1 5 6 60 10 22 -2 15 19 -7 11 45 -13 -14 37 -4 -15 25 28 -8 -21 48 -1 61 35 26 -6 -28 -11 -22 -31 -24 46 -19 -17 -20 -25 49 -39 -38 -29 -42 -10 -27 55 -5 47 -16 -9 -12 -33 -45 -49 54 -35 -32 -57 -43 59 -44 -3 -18
right_child=2 3 7 4 17 9 8 21 42 18 14 12 13 16 32 34 23 33 24 20 29 -23 31 36 -26 43 27 40 -30 30 44 50 -34 53 -36 -37 39 38 -40 -41 41 57 58 51 -46 -47 -48 52 -50 -51 -52 -53 -54 -55 -56 56 -58 -59 -60 -61 -62 -63
leaf_value=0.035872567485181035 -0.062410596081150529 -0.036890222096412094 -0.07326425272146346 0.020491151580341038 0.010198415628761707 -0.027411275637986895 0.009574800934600761 -0.080706394599733819 -0.042553421402030847 0.03623343792285532 0.026355337670808651 -0.038854091206901142 0.025191796529373246 -0.040253011533172477 0.010396527647897169 -0.048316141932675631 0.031701386737338348 -0.018006621739358453 0.027624527890110318 -0.02617799784455066 -0.0053248035794372338 -0.079780448074575239 0.081132763047519499 -0.033280372172567345 0.049213896181080963 0.0005830899870512636 -0.050878095055222033 0.0079941799322876747 0.058011732467333155 -0.052365602253080026 -0.0032079698525500494 0.055734461726114008 0.017590789879350307 0.0026433827093813849 -0.058859181236047858 0.042252014455976358 0.015794200110670623 -0.026644134213236855 0.028811574173131412 -0.029091899641725722 -0.029670599477925465 0.0063337022146178826 -0.026986678207079947 0.018964474247536819 -0.021946029098254407 0.033392521054610366 0.027764467122624942 0.050290506786818824 -0.065930859355208676 0.037829025742868019 0.071065034607270261 0.0095262208878160361 0.0054794656975427833 0.00092964992665713802 -0.026596340252618408 -0.040134069578639721 -0.012405528493133172 -0.024385898344186595 -0.030648620911541542 -0.052644033040463382 -0.051608141559655721 0.0094110879282015957
leaf_weight=249.97635486721992 1828.7120096385479 1036.7927483022213 1336.5993927009404 1778.5535458475351 1610.5348571538925 233.96403443813324 588.92164219915867 728.54135361872613 2076.1727181691676 584.71568563580513 1158.2461715936661 506.42326354980469 1632.0379626080394 310.22824285179377 943.08144100755453 6602.506336716935 327.1647594422102 904.74579129740596 1260.2663593739271 2898.2382339909673 2686.2129725180566 5778.8860038630664 2575.1503698974848 212.81252266466618 4317.3286451995373 1212.3721632137895 212.86947385966778 703.17248167842627 4800.4242249131203 256.03189206495881 1130.5468712225556 645.46822133660316 4090.0020556002855 753.21970983967185 2847.1046215277165 2314.1125991344452 265.71902717649937 92.190357103943825 2433.8070164695382 120.30097246170044 343.58581141382456 410.77421928197145 598.96482721529901 2215.8255801908672 2111.5057248398662 1735.289125084877 8736.8980744257569 202.55095441639423 4191.2660692017525 6826.4949381649494 4801.7210486233234 3623.0393259301782 84.707021579146385 4667.8789841011167 530.81721343845129 233.41693936660886 2401.7836316414177 154.69313235580921 5640.0853722821921 677.6275551840663 900.16292379796505 461.04679314792156
leaf_count=433 10844 2471 10094 3242 4530 433 1385 6156 10089 786 1757 1215 2851 748 1963 44930 474 3091 1783 11656 12296 52028 3469 504 5572 3083 774 1986 6105 1511 4892 947 9358 2692 21227 3054 490 167 3506 283 1170 1202 3465 6220 11053 2968 16114 234 33764 9373 6245 10503 117 16859 2197 1230 10927 501 33130 4424 3610 968
internal_value=8.09646e-05 0.0274756 -0.0447326 0.0150662 0.0173799 0.05664 -0.0265731 -0.064279 -0.0234934 0.0472551 0.0251655 0.0151906 0.004487 0.0110893 0.0281487 -0.0542023 -0.00247796 0.00305125 0.0485729 -0.0152119 -0.0164584 -0.0744321 0.0719602 0.00599377 0.0437343 0.00734584 -6.68145e-05 -0.00912588 0.0556542 -0.0132618 -0.0167365 0.0730801 0.0238357 -0.00351719 -0.0514986 0.0371038 -0.010723 0.0339142 0.0267779 0.00176667 -0.00358502 -0.0125407 -0.0348237 0.0109571 -0.0151758 0.0268701 0.0263963 0.016666 -0.0681348 0.0361682 0.069259 0.0131106 0.0371414 -0.00131201 -0.00945553 -0.0113748 -0.0148759 -0.00209838 -0.0324976 -0.0406364 -0.0437532 0.0186916
internal_weight=117594 72981.2 44613.1 51198 49261.1 21783.1 23128.2 21484.9 21299.5 13510.8 31917.6 7349.58 3835.73 3329.31 24568 10786.2 1697.27 17343.5 13276.8 12306.7 11717.7 10698.7 8272.32 1387.04 7891.71 10486.9 3435.63 1825.1 5385.14 8819.5 6133.29 8022.34 14057.2 6856.66 9449.61 3574.38 598.833 10510.7 2526 386.02 1612.23 909.053 8992.85 7051.24 5877.25 3513.84 9967.24 1230.34 4919.81 7984.74 5447.19 5838.86 287.258 5951.92 1284.04 3765.75 2635.2 565.467 6916.68 1276.59 1936.96 788.212
internal_count=431149 146048 285101 117221 111140 28827 116902 168199 106058 17733 56332 13743 7533 6318 42589 76251 3467 54808 17300 54950 53565 91948 11094 2719 10409 29969 10163 5633 6891 41909 29613 10661 27786 24839 66157 4837 1277 14803 3673 773 4859 2873 51108 19806 28102 6210 18428 2314 39920 11130 7192 16723 351 21748 4889 17049 12157 1703 41019 7889 6081 1442
is_linear=0
shrinkage=0.05


Tree=2
num_leaves=63
num_cat=0
split_feature=14 14 14 14 14 14 14 14 20 14 20 14 14 20 14 14 20 16 20 14 14 20 20 16 14 20 14 11 20 20 20 20 11 20 20 11 16 22 13 14 35 48 13 23 28 23 1 4 16 11 13 14 24 26 6 20 41 11 2 11 0 40
split_gain=41821.1 7846.56 4795.86 1809.99 959.38 717.28 582.395 244.35 210.292 208.706 116.995 113.313 103.872 94.2976 89.0857 83.9831 83.9688 83.4116 72.0333 69.383 64.5694 62.6062 56.8707 55.5272 54.8583 45.8598 44.6599 42.9603 41.6136 40.7706 38.5774 34.8786 34.2966 29.8702 29.3185 27.6832 26.6625 26.1336 25.4667 25.2779 24.8152 23.4824 21.4081 21.1178 20.6541 20.4954 20.1112 20.0539 19.5595 19.5557 19.2264 18.726 28.0485 18.955 25.9452 18.6931 18.5551 18.2425 18.2369 18.8299 18.0804 18.3245
threshold=9.8450000000000006 2.7150000000000003 29.485000000000003 5.0750000000000011 1.905 16.255000000000006 60.115000000000002 6.495000000000001 9.5000000000000018 3.5050000000000003 8.5000000000000018 41.435000000000009 2.2450000000000006 7.5000000000000009 13.235000000000001 22.045000000000005 8.5000000000000018 1.0000000180025095e-35 8.5000000000000018 1.5150000000000003 2.2450000000000006 6.5000000000000009 6.5000000000000009 1.0000000180025095e-35 88.665000000000006 8.5000000000000018 8.0050000000000008 13.500000000000002 8.5000000000000018 6.5000000000000009 8.5000000000000018 5.5000000000000009 11.500000000000002 11.500000000000002 11.500000000000002 14.500000000000002 1.0000000180025095e-35 7.5000000000000009 1.0000000180025095e-35 4.0850000000000009 23.500000000000004 1.5000000000000002 4.5000000000000009 0.57735000000000014 71.500000000000014 0.80910000000000015 75.165000000000006 750.00000000000011 1.0000000180025095e-35 19.500000000000004 3.5000000000000004 3.2550000000000003 65.500000000000014 0.22735000000000002 15.500000000000002 7.5000000000000009 14.500000000000002 15.500000000000002 75.450000000000017 33.500000000000007 1.3650000000000002 18.500000000000004
decision_type=8 10 10 10 10 10 10 10 2 10 2 10 10 2 10 10 2 2 2 10 10 2 2 2 10 2 10 10 2 2 2 2 8 2 2 10 2 8 2 10 2 2 2 8 2 10 10 2 2 8 2 10 2 8 2 2 2 8 8 10 8 2
left_child=1 4 5 9 19 14 11 18 12 13 23 55 21 42 25 28 38 46 36 -1 -19 56 -21 31 -8 -2 48 -12 -7 60 -16 -11 -20 41 -17 -27 47 -25 -9 40 -29 58 -3 -30 -31 49 -10 -5 57 -28 -41 53 -53 54 -43 -4 -6 -18 59 -15 -14 -62
right_child=2 3 6 7 8 15 24 16 17 10 27 -13 29 33 30 34 26 20 32 22 -22 -23 -24 37 -26 35 45 39 43 44 -32 -33 -34 -35 -36 -37 -38 -39 -40 50 -42 51 -44 -45 -46 -47 -48 -49 -50 -51 -52 52 -54 -55 -56 -57 -58 -59 -60 -61 61 -63
leaf_value=0.075942174294151191 -0.019806702409294056 -0.010578443820740815 -0.055939944038817739 -0.013379682567409104 0.047334924748796026 -0.038225171171873254 -0.067142765841910299 -0.055510333374302612 0.0028726605441313996 -0.0060381754904692553 0.026003243630019657 -0.058181793084527048 0.040630051969478567 0.034325021352788795 -0.03024469169751362 -0.041666520133909653 0.0075129944310931554 0.058282995324383836 0.019835153002250749 0.049535924364718424 0.047426454777850006 0.050556283190618327 0.066858085365741837 0.03033539243231986 -0.075979466242235075 -0.0057075737611962203 0.0024455237391185648 0.023674124925587757 -0.024957076999012548 0.035161251759318897 -0.019199626814581063 0.010313184501455758 0.010419151548737045 0.035065627430261113 -0.032367854706665693 -0.013279930958110473 0.02313199366410159 0.0077722139157491953 -0.0084616327317902362 -0.014969378370827589 0.0024045222549618417 0.02653924118505633 0.018329249875767249 -0.032150374327027297 0.014289062127303315 -0.0099286688063023459 0.033409825259858875 0.0020230269315847159 0.02494058132290947 -0.0050694240506458793 0.017071597301923092 -0.003848841265178253 0.033225167309322012 0.044779152144814732 -0.0024568030632725717 -0.046302965303530057 0.024940293382438611 0.0010957318414961457 0.026990288541888785 0.02302542040691467 0.023660272352165508 0.0049369489582174204
leaf_weight=2067.8408453017473 1704.9645063690841 66.106445983052254 596.57999648526311 238.81083454936743 123.13920825719833 1309.3542813919485 3878.3827065769583 28.081761211156845 94.887215502560139 372.75249125063419 3655.8577452786267 4838.8670666068792 91.031117111444473 2361.90735565871 1055.1011791490018 3648.8018461428583 1812.1112470291555 2330.2695339173079 1203.8812147527933 555.46149873733521 3456.0213320180774 1587.1669670343399 3952.01836476475 481.18564243614674 3432.4491315614432 1982.4683582298458 1766.2929515019059 2994.1998834162951 2461.9575462527573 2433.4476712793112 3206.5702545419335 2574.3110330477357 4942.5882093422115 2320.3275779336691 1133.9018599055707 3094.1704137548804 134.17107081413269 176.03614318370819 2948.6732128970325 46.654595635831356 143.96252797544003 411.13830480724573 1595.0102905333042 1785.5081448368728 126.54884749650955 842.37558130547404 124.49247421324253 1777.8366585820913 108.8674339056015 1695.9999501332641 3980.0846251733601 154.5834214091301 75.018619507551193 102.22120976448059 94.71610988676548 4491.980449276045 391.84925974905491 2846.5574426501989 3271.72022806108 447.53775629401207 346.37272445857525 210.51040983200073
leaf_count=3558 7646 144 3371 739 192 7285 37915 139 173 1002 7859 42919 138 3764 5209 24613 6419 3635 3489 1017 5319 2594 6519 738 35850 9623 6920 5827 15825 3749 18386 6682 14859 3667 8974 15533 208 295 10865 153 295 648 2910 12040 208 3561 212 5327 168 7062 9497 294 122 164 159 36337 613 10664 5424 732 558 342
internal_value=7.58454e-05 0.0250095 -0.0409596 0.0140137 0.0530768 -0.0251378 -0.0605828 0.00290841 0.0442428 0.0229352 0.0189868 -0.052683 0.0369773 0.0281582 -0.0162745 -0.034602 -0.00163865 0.0506596 0.00951086 0.0682704 0.0518079 0.0456294 0.0647349 0.0111797 -0.0713014 -0.012711 0.000752519 0.0215859 -0.0304065 0.0312951 -0.0219406 0.00824367 0.0122663 0.0301311 -0.0394692 -0.0103246 0.00163435 0.0243129 -0.00892397 0.0193287 0.0226995 0.0284715 0.0171732 -0.0279878 0.0341355 -0.00293902 0.0202747 0.000193315 0.00408557 -0.00123607 0.0166967 0.0205702 0.00835602 0.0251608 0.0211159 -0.0474436 0.0303764 0.00359297 0.0295563 0.0325339 0.0200371 0.0166041
internal_weight=102184 63562.6 38621.1 45671.6 17891.1 21382.8 17238.3 20346.2 11315.7 25325.3 14425 9927.43 5310.07 10900.3 11043.3 10339.5 12049 6005.67 8297.29 6575.32 5786.29 2102.16 4507.48 3604.29 7310.83 6781.6 9072.2 10820.8 5556.82 3207.91 4261.67 2947.06 6146.47 9239.17 4782.7 5076.64 2150.82 657.222 2976.75 7164.9 3138.16 6918.84 1661.12 4247.47 2560 4304.67 219.38 2016.65 4767.54 3462.29 4026.74 837.678 229.602 608.076 505.854 5088.56 514.988 4658.67 6081.17 2809.45 647.914 556.883
internal_count=431149 149623 281526 120796 28827 125134 156392 70420 17733 50376 32348 82627 8394 18028 56397 68737 45798 9339 24622 11094 8954 3399 7536 8717 73765 32802 34794 23631 35150 4995 23595 7684 18348 14974 33587 25156 6274 1033 11004 15772 6122 11307 3054 27865 3957 17543 385 6066 17251 13982 9650 1387 416 971 807 39708 805 17083 9920 4496 1038 900
is_linear=0
shrinkage=0.05


Tree=3
num_leaves=63
num_cat=1
split_feature=14 14 14 21 14 14 14 14 14 21 14 14 21 14 14 23 23 14 16 14 13 14 21 13 11 22 21 21 21 22 11 13 13 22 16 11 13 4 14 42 11 1 14 11 23 11 13 23 11 11 4 13 21 23 22 23 42 10 21 34 23 14
split_gain=32809.8 6371.49 4040.91 1434.94 758.874 606.462 492.41 229.74 151.692 142.022 137.717 92.1567 72.1473 53.4244 53.0501 49.378 48.1127 46.3603 46.353 45.7102 44.7204 42.2221 40.1668 39.1809 35.472 34.3916 33.1785 33.0358 32.8045 31.1002 28.2411 24.8097 24.2185 23.7733 22.5265 23.4252 20.0999 20.0757 20.1286 20.0102 22.0819 21.6419 19.3143 19.095 18.3205 18.7242 18.1009 17.8899 17.7585 17.2536 18.42 17.1128 16.3705 16.1424 18.4683 16.0258 15.8654 16.2163 15.7838 15.2727 15.0497 14.8358
threshold=9.5350000000000019 2.7150000000000003 29.485000000000003 2.5000000000000004 1.905 16.505000000000006 60.115000000000002 3.7450000000000006 6.2650000000000006 3.5000000000000004 2.2450000000000006 41.435000000000009 4.5000000000000009 12.635000000000003 5.0750000000000011 0.87085000000000012 1.2792000000000001 1.6250000000000002 1.0000000180025095e-35 102.90500000000002 1.0000000180025095e-35 22.045000000000005 3.5000000000000004 2.5000000000000004 22.500000000000004 10.500000000000002 5.5000000000000009 4.5000000000000009 2.5000000000000004 3.5000000000000004 11.500000000000002 1.0000000180025095e-35 2.5000000000000004 3.5000000000000004 1.0000000180025095e-35 13.500000000000002 3.5000000000000004 869075.00000000012 2.9450000000000007 0.40050000000000008 329.50000000000006 76.110000000000014 2.7950000000000004 12.500000000000002 0.77350000000000019 59.500000000000007 688.00000000000011 1.1339500000000002 20.500000000000004 15.500000000000002 504850.00000000006 1.0000000180025095e-35 6.5000000000000009 0.54200000000000015 3.5000000000000004 0.29285000000000005 0.28305000000000008 0 3.5000000000000004 1.5000000000000002 0.56350000000000011 3.5050000000000003
decision_type=8 10 10 2 10 10 10 10 10 2 10 10 2 8 10 8 8 10 2 10 2 10 2 2 10 10 2 2 2 10 8 2 2 10 2 8 2 2 10 8 10 10 10 8 8 10 2 8 8 8 2 2 2 8 10 8 10 1 2 2 8 10
left_child=1 4 5 7 17 9 11 15 59 28 18 26 58 31 16 29 24 -1 -6 52 -10 36 49 -12 -9 32 -4 -13 -2 37 -16 -11 -17 55 -25 -36 -14 38 48 40 -26 -41 -34 -15 45 -24 -32 -37 -3 50 -22 -45 -8 54 -33 -20 -44 -58 -7 -5 -38 -27
right_child=2 3 6 8 10 12 19 14 20 13 23 27 21 43 30 25 -18 -19 33 -21 22 -23 44 34 39 61 -28 -29 -30 -31 46 53 42 -35 35 47 60 -39 -40 41 -42 -43 56 51 -46 -47 -48 -49 -50 -51 -52 -53 -54 -55 -56 -57 57 -59 -60 -61 -62 -63
leaf_value=0.070307194915775667 0.0076034425657650747 0.035961007254389062 -0.034389681710342762 0.003520413062951941 0.012148224891222664 -0.013871153690546513 -0.052871591013397959 0.02181335849539022 -0.053494206053037056 -0.058235401930929791 -0.0020649330128894301 -0.019545483654397133 -0.05007639620660928 -0.015603272168790337 0.019286185269322589 -0.018030952835134367 0.0065466812086307918 0.061046164077114176 0.049704043051060048 -0.073193510967298245 0.006395049718327642 -0.037940028666641007 -0.002325194699756812 0.028884493189080474 0.016580589702185913 0.033020027238227993 -0.045922731546933479 -0.054767540420181449 -0.0069432876149952034 0.029560289245189678 0.0079137040007501401 -0.013932101173024142 0.031472304858534937 0.054355676982289471 0.044677408180076927 0.038255712417435313 -0.026839378629838234 0.0095639500822100286 0.022631251962554721 -0.022527351545352195 -0.016479639549668117 0.012997703176377435 0.017156623084916139 -0.062452942668562654 -0.010190030487878268 -0.014620265199328082 0.014959172649965017 0.026272758171411503 0.023575819764312455 -0.0017185166953095528 -0.01113276677319508 -0.023138256378512724 -0.064960851076812931 -0.016678913522287942 -0.0044470532167731336 0.039237383532298012 0.01083112301153721 -0.01682928454637711 -0.025407752946157932 0.009099372415792388 -0.033400938398836309 0.013804156329790025
leaf_weight=2691.8327925726771 492.81469909474254 638.80157268792391 762.98220082744956 1772.99262066558 80.445535913109779 406.67673641070724 331.87386576086283 5349.0772597193718 42.532331231981516 30.439242668449879 60.879292637109756 69.068288769572973 127.29217390343547 1008.556189969182 1053.0485163480043 49.822123348712921 795.74171634018421 2920.962910592556 1158.8445686101913 2097.8160443659872 1534.9389949813485 3871.8391993138939 2849.5025744028389 597.7548265978694 2508.2812993004918 525.11811946332455 3874.4619553107768 4284.9707770757377 1801.7312236651778 5142.4091398306191 2905.0372311770916 1474.3939479030669 206.7785362303257 2071.7999119013548 1474.1576765477657 3624.5575227066875 2018.8502758070827 233.44024775922298 3297.998140193522 71.50687712430954 50.78744637966156 103.90063621848822 1601.5612335950136 27.269947025924921 1620.1576947756112 346.50836089998484 1331.7276699766517 351.31416575610638 547.75732818245888 2752.1241790689528 165.18745062500238 3376.9055852945894 4141.3393489085138 2167.9120448082685 788.88254725188017 575.82109107077122 182.14761067926884 62.599980860948563 1138.3119650185108 3994.0281113572419 1604.3191966749728 126.71639089286327
leaf_count=5383 1601 1057 4869 5935 131 1807 2445 12205 270 229 124 359 1026 6224 2921 130 1845 5711 2123 24384 5979 31004 12292 1252 5925 891 34839 42560 8280 9198 8510 8005 344 3708 2456 6219 14430 455 6247 187 130 264 3046 213 7224 1616 3771 631 951 11245 705 21076 46936 11851 4224 1089 345 129 6671 13152 12068 252
internal_value=9.25998e-05 0.0235178 -0.0374087 0.0133516 0.0507815 -0.022732 -0.0565846 0.0202969 0.00101343 -0.0149073 0.0425113 -0.0489683 -0.0322626 -0.017774 0.0159253 0.0252054 0.0182878 0.0654994 0.0498828 -0.0669974 -0.00293344 -0.0342622 -0.00269567 0.0378135 0.0194427 0.0192711 -0.0440331 -0.0542134 -0.00381704 0.0268611 0.0119571 -0.0139097 0.0161465 0.0506768 0.0382152 0.0392331 -0.0304562 0.0239135 0.0246582 0.0147989 0.0159183 -0.0015301 0.0169843 -0.0216771 -0.00585993 -0.00366237 0.0101313 0.0372038 0.0302682 0.000727781 0.00468647 -0.0234714 -0.0640759 -0.0135922 -0.0106294 0.0462543 0.0153455 0.00347255 -0.022382 0.0073851 -0.0297532 0.0293113
internal_weight=93369.3 57470.6 35898.7 41862.2 15608.4 20336.2 15562.5 26784.3 15078 11168.9 9995.57 8991.48 9167.29 8874.36 14169.1 12615.2 8879.3 5612.8 3886.91 6571.03 9310.95 7622.3 9268.42 6108.66 8083.55 2754.74 4637.44 4354.04 2294.55 9860.41 5289.81 4461.63 2102.91 3806.47 6047.78 5450.03 3750.46 4718 4484.56 2734.48 2559.07 175.408 2053.09 4412.73 4816.17 3196.01 4236.76 3975.87 1186.56 4452.25 1700.13 3404.18 4473.21 4431.19 2263.28 1734.67 1846.31 244.748 1544.99 5767.02 3623.17 651.835
internal_count=431149 146048 285101 117221 28827 128709 156392 58803 58418 61703 17733 82627 67006 51822 35758 23045 20556 11094 7051 73765 39331 58528 39061 10682 18711 5137 39708 42919 9881 17908 15202 24309 3994 6920 10558 9306 27524 8710 8255 6506 6055 451 3864 27513 21132 13908 12281 6850 2008 17929 6684 21289 49381 24080 12229 3212 3520 474 8478 19087 26498 1143
cat_boundaries=0 1
cat_threshold=116
is_linear=0
shrinkage=0.05


Tree=4
num_leaves=63
num_cat=1
split_feature=21 21 21 21 21 21 20 20 8 23 20 20 20 21 21 11 20 23 21 20 20 20 7 13 13 20 45 9 3 20 45 11 20 2 20 46 28 44 7 8 23 45 21 23 18 42 11 13 11 20 20 15 26 45 43 5 36 13 13 23 11 23
split_gain=26860.2 3700.04 3257.56 561.396 512.442 332.326 264.142 173.83 163.568 108.512 96.7345 96.1523 80.2415 69.1587 50.999 49.4898 46.1772 43.5866 42.2396 51.2774 40.2074 34.2119 33.327 31.8126 31.7635 30.6647 29.5543 26.6905 27.62 25.795 25.6243 24.6809 24.4043 24.2176 23.3952 22.8913 22.3694 22.2201 23.4339 22.2041 22.1842 21.0736 21.0399 20.4494 21.4786 20.0872 19.5539 20.4242 19.4626 18.8952 18.7309 18.5387 18.5218 18.0755 18.0746 17.7005 16.847 18.7671 16.7308 16.8901 16.4645 16.3058
threshold=3.5000000000000004 1.5000000000000002 6.5000000000000009 2.5000000000000004 4.5000000000000009 8.5000000000000018 8.5000000000000018 9.5000000000000018 0.43875000000000003 1.1742500000000002 7.5000000000000009 8.5000000000000018 8.5000000000000018 5.5000000000000009 5.5000000000000009 13.500000000000002 11.500000000000002 0.074150000000000008 9.5000000000000018 10.500000000000002 12.500000000000002 5.5000000000000009 0.72675000000000012 1.5000000000000002 2.5000000000000004 6.5000000000000009 2.8020000000000005 1.5000000000000002 70.450000000000017 11.500000000000002 2.7465000000000006 15.500000000000002 11.500000000000002 75.950000000000017 6.5000000000000009 1.0000000180025095e-35 31.500000000000004 10.500000000000002 0.7784500000000002 0.27815000000000006 0.11805000000000002 2.3005000000000004 7.5000000000000009 0.80910000000000015 0 0.10815000000000001 12.500000000000002 44.500000000000007 18.500000000000004 7.5000000000000009 8.5000000000000018 6.5000000000000009 0.17125000000000004 0.056500000000000009 4.5000000000000009 15.500000000000002 1.0000000180025095e-35 196.50000000000003 5.5000000000000009 1.5635000000000001 13.500000000000002 0.19090000000000004
decision_type=2 2 2 2 2 2 2 2 10 8 2 2 2 2 2 10 2 10 2 2 2 2 10 2 2 2 8 2 8 2 8 10 2 10 2 2 2 2 10 10 10 8 2 8 1 8 8 2 10 2 2 2 8 10 2 2 2 2 2 10 8 10
left_child=1 8 4 10 11 7 14 40 9 15 58 25 34 32 21 37 -15 -7 19 -19 42 -6 33 -12 -11 -2 54 -26 -29 48 55 -14 60 41 -5 -28 -37 38 -1 -30 -4 -17 -9 46 -45 61 -25 -48 -13 -16 -42 -44 -41 -20 -10 -24 -43 -58 -3 -60 -8 -35
right_child=2 3 5 12 6 17 13 20 26 24 23 29 31 16 49 22 -18 18 53 -21 -22 -23 30 43 27 -27 35 28 39 -31 -32 -33 -34 45 -36 36 -38 -39 -40 52 50 56 51 44 -46 -47 47 -49 -50 -51 -52 -53 -54 -55 -56 -57 57 -59 59 -61 -62 -63
leaf_value=0.036463377557874092 -0.027422245187818935 -0.008863973667280891 -0.04221364546390171 -0.010916359399311355 -0.05340405092428524 -0.040926442404703944 -0.014759095654920949 -0.036735103640136747 0.042871061757557394 -0.0096847714298761503 -0.013075429297129347 -0.0061808862239370538 0.0079813624960517037 -0.030367535084797084 -0.051014760660658291 0.0094092909871911386 -0.018442366664444435 -0.061875289518524425 -0.063489398418728804 -0.047803222038995674 -0.027748490815075057 -0.030912306426103504 0.032396245785010346 0.023585564957879682 0.030937587902905087 -0.015278344621037554 0.043072267475796171 0.041841535659751003 0.0072752746214827264 -0.0020040442053371804 0.038871305645894937 0.0022349909800293338 -0.012427868738180581 0.034022857098470249 -0.0017353260267229194 0.046697222247084065 0.056809217264564671 0.044310560182397908 0.046491211032122857 0.040405068961681695 -0.059113655411605494 0.039693312010894502 -0.040008169192580746 0.001814725716492351 0.016370921592299102 0.032156901889179496 0.010900739921247682 0.019334470587461544 -0.012897178501161066 -0.039321571374516945 -0.050322082360465883 -0.049998235096609882 0.0093752629151753267 -0.044808200396063744 0.010602103799113615 -0.0034571066163874434 0.026672798432782363 0.035431777825636987 0.0096961694486636472 -0.014763673108743051 -0.022457527875042523 0.017271690802672945
leaf_weight=3457.135688893497 751.6799889318645 137.16827894747257 407.06607678160071 1025.9182898923755 189.39577604644001 340.39574128761888 967.56579347327352 2313.1186114139855 82.360142648220062 68.201260272413492 78.857600159943104 2326.6201049685478 3335.5105296671391 2890.2805941421539 790.76175342127681 82.602506205439568 1137.6136898621917 1267.9914720617235 3852.1388160167262 1384.6907941047102 793.28224611468613 1701.8299785330892 78.505753867328167 2479.5321490764618 870.72560020163655 1705.1977995634079 1964.1060203798115 102.2516148686409 418.63886656612158 1680.3381432183087 4446.943609662354 4249.7496511414647 1357.7758634835482 195.58838306367397 2141.050655324012 1546.642517067492 905.84990824386477 2421.5954441688955 720.73037975281477 115.81693393737078 1395.1206437274814 1372.1399737037718 1284.4251716919243 295.63917132467031 2708.8617771416903 1076.830862224102 803.97971254587173 7066.3970087394118 2015.8829779289663 661.71945087984204 1198.141715593636 774.24857387691736 83.036887720227242 145.13080053962767 92.362293720245361 60.400045044720173 876.3475484251976 2180.1772831268609 2504.4851916283369 71.766791634261608 2543.0708486828953 580.5964982509613
leaf_count=6376 3853 401 3599 4127 1192 4055 6153 21002 126 160 256 11881 13599 22842 5870 142 8885 14505 51653 15991 7718 11020 128 6506 1695 8795 3872 189 843 8936 8311 18147 8912 356 8819 3055 1761 4551 1282 216 12596 2492 12876 857 7508 2034 2346 19383 10942 5054 11678 8222 182 1949 163 114 1671 4015 7141 204 16829 1113
internal_value=0.000102342 0.02353 -0.0330049 0.0108238 -0.0201175 -0.050621 -0.0266622 -0.043757 0.0378898 0.035858 0.016718 -0.0106685 0.00197177 -0.0221545 -0.0386452 0.0370144 -0.0270049 -0.0586315 -0.0595315 -0.0545505 -0.0381795 -0.0331918 0.0349397 0.0184575 0.0236071 -0.0190034 0.0463803 0.0250398 0.0178719 -0.00726585 0.0382094 0.0047626 -0.0181368 0.0325781 -0.00471197 0.0471817 0.0504538 0.0404511 0.038204 0.0138415 -0.0533427 0.034567 -0.0400655 0.0186447 0.0150002 0.02772 0.0197011 0.0184744 -0.00930098 -0.0457183 -0.0550727 -0.0437878 0.0275595 -0.0628225 0.0259704 0.0168929 0.035034 0.03293 0.00810287 0.00900933 -0.0203406 0.0215311
internal_weight=86574 50698.5 35875.5 26898.9 20719.7 15155.8 12240 8165.4 23799.6 19208.3 16146.7 8479.72 10752.2 8896.31 3343.71 17549.6 4027.89 6990.35 6649.95 2652.68 5165.07 1891.23 10950.1 13433.3 1658.67 2456.88 4591.32 1590.47 719.744 6022.84 4585.85 7585.26 4868.41 6364.28 3166.97 4416.6 2452.49 6599.46 4177.87 617.493 3000.33 4511.27 4371.79 13354.4 3004.5 1853.02 10349.9 7870.38 4342.5 1452.48 2593.26 2058.67 198.854 3997.27 174.722 138.906 4428.66 3056.52 2713.42 2576.25 3510.64 776.185
internal_count=431149 134141 297008 89294 131164 165844 86757 77691 44847 35870 44602 44407 44692 63621 23136 32585 31727 88153 84098 30496 49818 12212 20376 36856 3285 12648 8977 3125 1430 31759 8553 31746 31894 11823 12946 8688 4816 12209 7658 1241 27873 8320 42100 36600 8365 3503 28235 21729 22823 10924 24274 21098 398 53602 289 242 8178 5686 7746 7345 22982 1469
cat_boundaries=0 1
cat_threshold=256
is_linear=0
shrinkage=0.05


Tree=5
num_leaves=63
num_cat=0
split_feature=14 14 14 19 14 19 19 14 14 14 19 8 19 9 19 14 14 19 8 19 14 19 9 21 8 19 20 19 9 21 14 15 20 20 20 14 8 19 9 19 9 19 19 9 19 9 20 20 11 8 19 14 23 23 20 9 19 8 19 9 15 8
split_gain=24290.6 4472.57 3527.2 1360.46 736.962 674.276 581.187 449.256 438.098 415.824 227.062 251.636 216.878 206.531 123.991 108.414 98.1148 85.9542 157.117 84.0391 80.9084 70.3103 98.4742 66.6071 63.0728 84.3424 56.5685 55.2234 92.3721 55.1402 52.2694 51.4435 49.6818 47.5216 43.0041 42.5291 41.2346 96.3755 37.7236 72.7865 37.1427 65.2665 35.7021 34.2133 30.9147 48.627 28.5486 28.4214 26.5715 25.292 54.6162 24.4412 24.2321 21.8887 21.8466 20.6968 24.5226 20.3879 36.9181 35.6514 20.9821 19.7842
threshold=8.6650000000000009 2.7150000000000003 26.695000000000004 1.0000000180025095e-35 5.2650000000000006 1.0000000180025095e-35 1.0000000180025095e-35 2.1650000000000005 50.355000000000011 14.665000000000001 3.5000000000000004 0.026150000000000003 1.5000000000000002 1.5000000000000002 1.0000000180025095e-35 3.5050000000000003 1.7150000000000001 2.5000000000000004 0.041850000000000005 4.5000000000000009 74.065000000000012 2.5000000000000004 2.5000000000000004 2.5000000000000004 0.029550000000000003 1.5000000000000002 9.5000000000000018 1.5000000000000002 1.5000000000000002 3.5000000000000004 21.095000000000002 6.5000000000000009 6.5000000000000009 9.5000000000000018 7.5000000000000009 34.445000000000007 1.0000000180025095e-35 1.5000000000000002 2.5000000000000004 4.5000000000000009 3.5000000000000004 6.5000000000000009 1.0000000180025095e-35 1.5000000000000002 3.5000000000000004 1.5000000000000002 8.5000000000000018 7.5000000000000009 48.500000000000007 0.025150000000000002 2.5000000000000004 7.0750000000000011 0.56350000000000011 0.59165000000000012 6.5000000000000009 4.5000000000000009 5.5000000000000009 0.11565000000000002 7.5000000000000009 3.5000000000000004 6.5000000000000009 0.14830000000000002
decision_type=8 10 10 2 10 2 2 10 8 10 2 10 2 2 2 10 10 2 10 2 10 2 2 2 10 2 2 2 2 2 10 2 2 2 2 10 10 2 2 2 2 2 2 2 2 2 2 2 10 10 2 10 10 10 2 2 2 10 2 2 2 10
left_child=1 5 6 -3 10 -1 -2 16 14 29 11 31 -13 52 -4 40 -7 18 -6 24 42 -15 -23 -19 -9 -26 54 -20 -29 -8 49 -5 -18 61 -31 -16 53 -38 46 -40 -12 55 -10 -27 45 -39 51 -43 -49 -11 -51 -25 -14 -36 -21 56 -42 -35 59 -59 -60 -17
right_child=2 3 8 4 17 7 9 19 20 30 15 12 13 21 35 33 32 23 27 26 -22 22 -24 38 25 43 -28 28 -30 34 -32 -33 -34 57 36 -37 37 44 39 -41 41 47 -44 -45 -46 -47 -48 48 -50 50 -52 -53 -54 -55 -56 -57 -58 58 60 -61 -62 -63
leaf_value=-0.040886589083363484 -0.050061085423269459 -0.03975814566008104 -0.060519403554092091 0.018551008232626707 0.0070845948186184218 0.064020476461805767 -0.0023357236077245426 0.038169011892839846 -0.066843985383242294 -0.016556152737037064 0.030663038378176175 -0.041718597438475641 0.026228591688660777 -0.043279426388042601 -0.035420985222755524 0.019322620870996211 0.036453679973581551 0.013035041330926721 -0.044288059941627253 0.024592936572237122 -0.06491027943180773 0.010906281445866918 -0.041798629425257298 0.0064159009701925465 -0.041715817905643125 0.033418757048267765 0.046430637056404406 0.0058689144985761606 -0.043807042583190729 -0.022340046222402918 -0.029858527162388616 0.040880371782968467 0.054139320158981721 0.02661366192488851 0.0003601562882606167 -0.043724960054353494 -0.049920225779098715 -0.007767205911711106 -0.031058521615375492 0.0018971480842173442 -0.013614107449912226 0.0091892157442801936 -0.052155426169543155 0.0067585157835720723 -0.0091367845474985571 -0.038304983329371149 0.0096229405350344611 0.029743680953872816 0.011389536870144429 -0.041884543571652465 -0.021588138625969509 -0.0085378900724561013 0.0071886654273623871 -0.010989611370511861 0.037785484729004684 -0.030575276829923278 0.032398702475637746 0.01766504357604512 0.02496134324615612 -0.005080912771465944 0.013365390271015701 0.012147609401435231
leaf_weight=211.07812213152647 1341.3756860159338 1163.2130079381168 852.83620297536254 1502.5274014174938 979.31226508691907 3116.7718679532409 2487.811993483454 529.47407823055983 498.73713046312332 1805.6100157573819 4769.7194088213146 315.01903030276299 566.90480007231236 189.79860403388739 2737.5165772810578 1903.7913079932332 453.91630117595196 3190.5252198427916 231.99348204955459 394.93249082565308 3889.1196375368163 269.551404312253 130.83267606794834 678.56734883785248 59.715173855423927 254.27133648842573 2587.1015091016889 239.66696257889271 152.31792352348566 748.81058309972286 2797.1568333506584 311.82195853441954 3759.228230074048 2227.770639590919 1244.2892085053027 3652.68803617917 163.75120482966304 277.03182997554541 178.23907094076276 2566.9306035749614 68.246850147843361 242.61577984690666 2949.3857268784195 228.8536604270339 3417.4871317371726 246.30961279571056 3230.3319754973054 1589.6233618780971 227.01566857099533 376.10223422944546 2835.3909876346588 456.01369058340788 238.1412408798933 643.95910808444023 1694.240784868598 58.102269768714905 48.812783509492874 631.67111019417644 2569.8182239159942 236.20788944512606 464.45055990666151 1957.0933183170855
leaf_count=547 11595 5369 9750 3785 3997 7091 11898 1095 6470 13111 9768 1134 1337 678 26167 5497 1100 10387 1296 891 51984 704 452 2766 184 553 5227 1009 830 4534 23939 701 8108 5829 7283 38510 1364 1721 988 11752 163 596 35209 560 21516 1899 14220 3130 471 3243 21538 2284 627 4042 3486 154 90 1726 6782 718 1282 5808
internal_value=-6.2656e-05 0.0230646 -0.0329489 0.0133488 0.0152552 0.0476163 -0.0183825 0.0490477 -0.051314 -0.0158865 0.0209965 0.00944335 -0.00431661 0.00415196 -0.0425773 0.0233918 0.057259 0.00535761 -0.00540904 0.0385695 -0.0599315 -0.0182978 -0.00637722 0.00703381 0.0259003 0.0138856 0.0414686 -0.0249973 -0.0134966 -0.00869887 -0.0243737 0.022409 0.052243 0.0200435 -0.0110463 -0.0401737 -0.00963165 -0.0124443 0.0043394 -0.000253137 0.0281644 0.0228193 -0.0542987 0.02083 -0.0108748 -0.0221854 0.00722713 0.0253108 0.0274576 -0.0213104 -0.0239774 0.000403409 0.0206123 -0.00351428 0.0353046 -0.00644823 0.00568472 0.0227827 0.0205893 0.0114756 0.0231914 0.0156897
internal_weight=79841.6 46876.2 32965.4 33586.6 32423.4 13289.6 18385.1 13078.5 14580.3 17043.7 20519.5 3524.6 1710.25 1395.23 7243.04 16994.9 7329.92 11903.9 1603.29 5748.59 7337.24 590.183 400.384 10300.6 1072.31 542.84 4676.27 623.978 391.985 9229.45 7814.26 1814.35 4213.14 9990.8 6741.64 6390.2 5992.83 4104.58 7110.08 2745.17 7004.14 2234.42 3448.12 483.125 3940.83 523.341 4364.91 2059.25 1816.64 5017.1 3211.49 1134.58 805.046 1888.25 2089.17 175.162 117.06 6129.92 3902.15 867.879 3034.27 3860.88
internal_count=430945 135172 295773 106330 100961 28842 127683 28295 168090 116088 51432 9418 4932 3798 74427 42014 16299 49529 7132 11996 93663 1834 1156 42397 2392 1297 9604 3135 1839 54257 61831 4486 9208 27642 42359 64677 37825 26500 32010 12740 14372 4604 41679 1113 25136 3620 19270 4197 3601 37892 24781 5050 1964 11325 4377 407 253 16337 10508 2444 8064 11305
is_linear=0
shrinkage=0.05


Tree=6
num_leaves=63
num_cat=0
split_feature=14 14 14 19 14 19 14 19 14 14 19 8 19 19 19 14 8 19 14 14 9 19 14 9 19 8 14 9 19 9 19 9 8 19 14 19 8 9 42 8 19 9 19 9 9 8 19 14 19 8 19 19 19 19 9 19 9 19 19 19 0 16
split_gain=20290.7 4027.82 2666.04 1079.56 795.093 581.823 427.956 413.995 393.182 261.713 156.848 142.126 237.089 134.732 115.816 94.5443 88.8932 111.734 87.0562 84.2835 83.3673 128.108 71.5745 50.0159 49.8428 71.2338 45.8787 45.47 39.2495 42.6844 38.8396 46.6862 37.4573 66.4697 32.2285 29.6264 72.8762 29.2951 28.7225 24.5832 45.7519 32.6073 23.5259 66.2795 28.7852 23.0618 33.792 21.4163 20.9578 28.8783 20.3628 20.1417 19.5832 19.5478 39.1878 19.4561 19.285 27.7207 19.0439 18.8286 18.7335 18.6956
threshold=9.5350000000000019 2.7150000000000003 26.695000000000004 1.0000000180025095e-35 5.2650000000000006 1.0000000180025095e-35 2.1650000000000005 1.0000000180025095e-35 62.985000000000007 14.665000000000001 7.5000000000000009 0.020500000000000004 1.5000000000000002 1.0000000180025095e-35 4.5000000000000009 7.3050000000000006 0.029550000000000003 1.5000000000000002 3.5850000000000004 1.7150000000000001 1.5000000000000002 2.5000000000000004 41.435000000000009 5.5000000000000009 2.5000000000000004 0.030450000000000001 18.535000000000004 1.5000000000000002 1.5000000000000002 1.5000000000000002 5.5000000000000009 4.5000000000000009 0.06430000000000001 3.5000000000000004 108.62500000000001 1.5000000000000002 1.0000000180025095e-35 7.5000000000000009 0.23405000000000004 0.12025000000000001 8.5000000000000018 2.5000000000000004 3.5000000000000004 2.5000000000000004 3.5000000000000004 0.10555000000000002 5.5000000000000009 4.1650000000000009 2.5000000000000004 1.0000000180025095e-35 1.0000000180025095e-35 3.5000000000000004 4.5000000000000009 1.5000000000000002 1.5000000000000002 12.500000000000002 7.5000000000000009 10.500000000000002 6.5000000000000009 6.5000000000000009 0.77500000000000013 1.0000000180025095e-35
decision_type=8 10 10 2 10 2 10 2 10 10 2 10 2 2 2 10 10 2 10 10 2 2 10 2 2 10 10 2 2 2 2 2 10 2 10 2 10 2 8 10 2 2 2 2 2 10 2 10 2 10 2 2 2 2 2 2 2 2 2 2 10 2
left_child=1 5 7 -3 10 -1 19 -2 13 32 11 38 -13 -4 16 24 -8 -18 37 -7 -14 -22 -15 30 25 -6 -11 -19 -27 -30 31 42 -9 53 50 36 -17 -12 47 -26 41 -41 43 -23 -44 -37 -47 60 49 -28 -10 -43 -46 -34 -55 -39 -20 -58 -21 -25 -5 -35
right_child=2 3 8 4 15 6 14 9 34 26 18 12 20 22 -16 35 17 27 56 58 21 23 -24 59 39 28 48 -29 29 -31 -32 -33 33 61 -36 45 -38 55 -40 40 -42 51 44 -45 52 46 -48 -49 -50 -51 -52 -53 -54 54 -56 -57 57 -59 -60 -61 -62 -63
leaf_value=-0.039895963755771952 -0.047337983642513418 -0.036773445307067477 -0.059094791464870858 0.012963046973184511 0.007952068064883239 0.061409174896453825 0.036247993451486826 -0.004955737234103046 -0.066493258035362476 -0.018172220261310802 0.029210454034488454 -0.036874221044896592 0.019806179356453617 -0.035824496988004821 0.039479376398571429 0.00106526099584436 -0.050717406293418643 0.031094979570166499 0.020275230641990646 0.044009306161603631 -0.038054832320308221 0.0093368114656103146 -0.045543765732863797 -0.055503303849243339 0.012194405583354691 -0.039839846568558539 -0.025086941944483344 0.00027197208695080489 0.0072610831723036607 -0.035134243735955036 0.017484355067869505 -0.039330533154722361 -0.045312080448659892 -0.010198582335093952 -0.06644987408448659 0.0035613197629118681 -0.042798665483948728 -0.0044690295890855393 0.032343419232736752 0.0060448337759571669 0.010065002453100543 -0.042880008248099045 0.014744737134130546 -0.037148516662225441 -0.027960463819514725 -0.014132178395272438 -0.00038593222499927216 0.01379394940347458 -0.024383843336216463 -0.044186075363928129 -0.055624312528722186 -0.0076177124335920082 0.0057335939113349194 -0.007804247125982074 -0.036887182471711799 0.021102183504695209 -0.023208098984151146 0.014255157160692125 0.052135392261050774 -0.010335706060060713 0.02631467470134399 0.019592067279976408
leaf_weight=197.94914998859167 1152.6278955359012 1112.5299563035369 1065.7315621841699 334.7534607462585 600.15850124880672 2830.3343968875706 495.8679012209177 2925.3348995205015 545.03722101077437 3202.7073772288859 4861.7655988968909 268.00209507718682 1791.7136604003608 4356.3363595623523 4376.5404287874699 278.016212888062 71.720123752951622 240.25273409485817 5808.2646208107471 1033.1000328883529 155.34010080248117 263.0894773453474 3403.564412554726 33.215600349009037 3130.2160491831601 145.57788929343224 466.8176078312099 237.4159907028079 170.45914564281702 89.890305388718843 1019.2793688438833 56.87511270493269 126.3733026124537 3460.82059452869 1459.0145131116733 2349.816072486341 142.56493545696139 87.578345976769924 600.55290148407221 641.15242111310363 2492.1805141568184 42.866728957742453 789.06649740040302 107.0721132978797 69.576860941946507 559.90513793006539 2203.4261177554727 873.75639512017369 3474.158089607954 351.29397969692945 2870.1755397524685 540.78051200136542 110.18049445748329 222.11966250091791 242.59485656768084 481.36822289973497 52.863323785364628 605.1270757317543 2849.5800339728594 72.763390175998211 1275.3652377724648 52.588533241301775
leaf_count=547 10900 6064 13567 812 2309 7091 1095 17731 7938 24550 10343 1141 4590 44890 9604 1325 184 553 16564 2594 678 704 41011 124 12182 853 3973 560 680 533 2640 215 1057 22197 21165 11424 942 218 1459 2585 9995 233 2046 452 254 3068 10975 2725 29838 3470 39519 2353 296 1362 1887 1069 165 1788 6614 216 2933 95
internal_value=-5.10091e-05 0.0204825 -0.0325871 0.011652 0.0132805 0.0449798 0.0463675 -0.0185047 -0.0486997 -0.0162136 0.0196651 0.0141615 0.00871906 -0.0423938 0.0359061 0.00387589 0.0209211 0.00704668 0.0232814 0.0548101 0.0114614 0.0058698 -0.0400928 0.00859026 0.00740274 -0.00298641 -0.0227134 0.0158076 -0.0191386 -0.00745509 0.0100686 0.00464485 -0.00928144 -0.0123625 -0.0601065 -0.00112973 -0.0138696 0.0279519 0.022513 0.00892947 0.0061774 -0.00173473 0.00654071 -0.00417329 0.0106343 -7.93021e-05 -0.0031753 0.0201241 -0.0260967 -0.033332 -0.0573779 -0.0102765 -0.00739056 -0.0278647 -0.023033 0.0171651 0.0193551 0.0112147 0.0499851 -0.0248785 0.0235486 -0.00974723
internal_weight=75927.2 46549.9 29377.3 34217.1 33104.6 12332.8 12134.8 15677.4 13699.9 14524.8 19717.6 7820.6 4736.17 8825.63 5421.8 13387 1045.26 549.389 11897 6713.01 4468.17 2676.46 7759.9 2521.12 7853.28 1006.09 7494.98 477.669 405.927 260.349 2415.14 1395.86 7029.83 4104.5 4874.23 5533.73 420.581 5430.71 3084.43 6847.2 3716.98 1224.8 1338.99 370.162 968.824 5113.15 2763.33 2483.88 4292.27 818.112 3415.21 583.647 179.757 591.088 464.715 568.947 6466.26 657.99 3882.68 105.979 1610.12 3513.41
internal_count=430945 145795 285150 116953 110889 28842 28295 117060 168090 106160 51432 21285 13356 99468 11996 59457 2392 1297 30147 16299 12215 7625 85901 6947 31723 4375 61831 1113 2066 1213 6607 3967 44329 26598 68622 27734 2267 11630 7929 27348 15166 5171 3752 1156 2596 25467 14043 6470 37281 7443 47457 2586 550 4306 3249 1287 18517 1953 9208 340 3745 22292
is_linear=0
shrinkage=0.05


Tree=7
num_leaves=63
num_cat=0
split_feature=14 14 14 14 19 19 14 19 19 14 14 14 19 8 14 19 19 8 14 19 19 9 19 9 19 19 19 8 14 8 19 9 8 19 8 19 14 8 9 19 11 9 19 47 19 9 14 9 19 19 9 28 14 23 19 19 14 22 41 19 19 14
split_gain=17148.4 3788.91 1958.13 981.851 465.297 464.152 390.496 367.812 339.414 283.67 203.903 136.859 118.353 88.4543 77.3155 74.235 73.8298 95.3187 73.5919 70.0231 58.1493 55.1967 54.0709 48.7438 48.5471 48.2713 41.3019 65.4661 40.2499 37.332 41.5937 34.1018 33.6485 74.3551 33.4998 80.2274 29.6245 26.6879 25.7395 24.3744 24.1532 24.3256 40.2084 24.1517 23.3549 39.5106 23.3448 21.878 27.6646 21.5712 32.4448 20.6485 19.9394 19.3205 19.0892 18.7522 18.0612 17.8012 20.1888 17.6762 17.5227 17.0879
threshold=10.825000000000001 2.7150000000000003 34.445000000000007 5.6550000000000011 1.0000000180025095e-35 1.0000000180025095e-35 2.1650000000000005 1.0000000180025095e-35 1.0000000180025095e-35 17.485000000000003 62.985000000000007 3.5050000000000003 4.5000000000000009 0.029550000000000003 7.6450000000000005 1.0000000180025095e-35 6.5000000000000009 0.11165000000000001 1.7150000000000001 1.5000000000000002 1.5000000000000002 1.5000000000000002 7.5000000000000009 1.5000000000000002 2.5000000000000004 2.5000000000000004 1.5000000000000002 0.019300000000000001 24.455000000000002 0.04370000000000001 1.5000000000000002 2.5000000000000004 0.016800000000000002 3.5000000000000004 0.057300000000000011 2.5000000000000004 108.62500000000001 0.051400000000000008 7.5000000000000009 12.500000000000002 7.5000000000000009 6.5000000000000009 9.5000000000000018 2.5000000000000004 1.5000000000000002 1.5000000000000002 4.0850000000000009 3.5000000000000004 4.5000000000000009 4.5000000000000009 4.5000000000000009 30.500000000000004 46.335000000000008 0.48335000000000006 1.5000000000000002 33.500000000000007 3.8350000000000004 3.5000000000000004 42.500000000000007 6.5000000000000009 1.0000000180025095e-35 13.235000000000001
decision_type=10 8 10 8 2 2 10 2 2 10 10 10 2 10 8 2 2 10 10 2 2 2 2 2 2 2 2 10 10 8 2 2 10 2 10 2 10 10 2 2 10 2 2 2 2 2 10 2 2 2 2 2 8 8 2 2 10 10 2 2 2 10
left_child=1 4 8 5 -1 -3 18 -5 -2 32 15 22 13 -8 26 -4 17 56 -6 -15 -19 -21 29 -22 -23 -25 27 -9 51 -7 37 -26 53 44 -16 -36 60 -31 -24 -40 -18 46 -43 -32 -34 -46 -42 61 -49 -27 -51 -11 -17 -10 -30 -37 -13 58 -44 -20 -12 -35
right_child=2 3 10 7 6 11 12 14 9 28 36 16 -14 19 34 52 40 20 59 21 23 24 38 25 31 49 -28 -29 54 30 43 -33 33 47 35 55 -38 -39 39 -41 41 42 57 -45 45 -47 -48 48 -50 50 -52 -53 -54 -55 -56 -57 -58 -59 -60 -61 -62 -63
leaf_value=-0.038112242640402617 -0.046617893413915271 -0.030311530536053757 -0.058699313628743199 -0.038658472259243612 0.059046026550488032 0.026074801863823494 0.034467074157170319 0.0031779848774433576 -0.0026379802572195953 -0.021431172728172364 -0.063836157090948129 0.023313587229147628 0.037679821710474862 -0.044257507692305555 0.002006818724321608 -0.038224177627449771 0.025478586138587528 -0.034630436567500353 0.041981241848034041 0.029009092529440086 0.014503733717363732 -0.051255302686858996 0.027588531903853099 -0.040474685235694009 0.021316980596470449 -0.0088192430998093492 0.0060372602958272889 -0.038761506890696934 -0.041084153664720999 0.0086761854828934261 0.018043414468373445 -0.020458900402697974 -0.042923225121240166 -0.0043744702465022432 -0.029264177688847728 -0.0040554951972190173 -0.064045518984712113 -0.034649831815018795 -0.010007858017535834 0.020291344979576176 0.02179033136038358 -0.022147668553152304 -0.0078485242494993404 0.0011229316068211569 -0.011118242255284785 -0.036610945600655018 0.015511211322786329 -0.057486629430360807 -0.015529884459536734 0.011240161556908858 -0.019365531642332103 -0.032156806104183887 -0.044711300247153661 -0.011664764645196946 -0.028994941234105329 0.012857297152787509 0.013322111580764235 0.017978573364114056 0.014750021722552242 0.05007953852858147 -0.053360059517510272 -0.0128615025219368
leaf_weight=173.93488290160894 1253.217438519001 513.27822583168745 704.54343229997903 600.51029838249087 2590.4471807815135 897.32630376517773 468.59115801006556 297.60328901931643 1109.7241971939802 3384.7017901055515 505.8677365006879 564.42431791871786 4127.2899590283632 63.140991650521755 2503.0930555425584 2616.4777865819633 850.13658752292395 108.78746649250388 967.9359563216567 229.72641360759735 590.4677519351244 45.080915711820126 4300.7195862829685 79.841768078505993 127.90219740569592 433.05655317753553 6412.6493209525943 134.28707421571016 372.40120816975832 72.587139680981636 1570.7063303142786 77.704840108752251 208.44657829403877 1113.5776754058897 321.65719858184457 3614.6765822321177 1354.9612008761615 68.054433822631836 78.045353047549725 423.60686500370502 2297.7133536115289 90.354463435709476 183.19831012934446 243.73573800176382 316.12133456766605 294.02235403098166 4219.7956706546247 39.597004000097513 1391.5794359836727 489.27330641448498 104.22087790817022 522.33908843249083 2301.6568594574928 1273.3478204552084 3061.7191368378699 170.71647499501705 2319.4173741154373 596.65670168399811 212.41275946050882 2639.3290782347322 2698.5373402871192 1271.6222244054079
leaf_count=547 13537 2612 9935 4447 7091 1984 1095 1255 7231 29733 7938 1431 9604 184 13094 30071 2522 591 2594 553 1829 116 9392 435 257 1557 27743 873 3994 166 3634 187 1886 7019 2158 19920 21165 281 191 950 5946 313 612 635 2231 2520 13717 345 10189 1508 401 4727 29663 8690 31067 868 7526 1802 638 6614 39519 9612
internal_value=-5.41457e-05 0.0179637 -0.0327959 0.0098527 0.0428784 0.016619 0.0441242 -0.000405527 -0.0216684 -0.0194878 -0.0498542 0.0177788 0.033921 0.0185714 0.00130453 -0.0434628 0.0146805 0.00964599 0.0525784 0.00482989 0.000636262 0.01136 0.0230945 0.00291631 -0.00486436 -0.00327526 0.00502895 -0.00992162 -0.0263591 0.0176291 0.0137415 0.00550606 -0.0122974 -0.0147803 -0.00255214 -0.00533047 -0.057725 -0.0123853 0.0263363 0.015567 0.017473 0.0165743 0.00961948 0.0157723 -0.0284496 -0.0234427 0.0177279 -0.0118416 -0.01673 -0.00034544 0.0058421 -0.022873 -0.0412686 -0.00746414 -0.0303175 -0.00328956 0.015285 0.0125315 0.00429176 0.0479188 -0.0550333 -0.00890266
internal_weight=72668.6 46874.1 25794.5 35363 11511.1 21307.8 11337.1 14055.2 15612.4 14359.2 10182 20794.5 5139.44 1012.15 13454.7 5622.68 13139.8 4689.49 6197.71 543.555 1805.65 480.414 7654.78 1696.86 250.688 1106.39 6844.54 431.89 7341.16 2852.41 1955.08 205.607 7018.04 4634.97 6610.14 4107.05 4559.37 140.642 4802.37 501.652 8450.27 7600.13 1082.62 1814.44 818.59 610.144 6517.51 3816.38 1431.18 1026.55 593.494 3907.04 4918.13 2383.07 3434.12 3785.39 2883.84 992.268 395.611 3607.27 3204.41 2385.2
internal_count=430945 159873 271072 131031 28842 60673 28295 70358 132781 119244 138291 58061 11996 2392 65911 69669 40828 15278 16299 1297 6321 1113 17233 5730 560 3901 29871 2128 69521 6700 4716 444 49723 33802 36040 22946 68622 447 10533 1141 25550 23028 3365 4269 6637 4751 19663 27165 10534 3466 1909 34460 59734 15921 35061 20788 8957 3052 1250 9208 47457 16631
is_linear=0
shrinkage=0.05


Tree=8
num_leaves=63
num_cat=0
split_feature=17 17 17 17 17 19 19 19 19 17 17 19 19 8 19 21 19 8 17 17 19 19 9 19 20 20 17 9 5 19 19 8 19 8 19 20 19 17 9 9 9 19 19 8 19 8 35 21 9 15 19 9 9 17 21 24 8 19 8 19 43 13
split_gain=14710.9 3430.02 1583.77 891.289 421.502 348.71 328.862 264.136 262.189 197.102 186.077 172.337 112.44 110.37 86.7391 85.9417 79.1035 78.4776 70.518 65.5413 65.4633 49.2677 51.5907 57.6991 42.4941 37.073 35.396 34.6303 33.8662 40.0388 33.7596 36.6097 32.4349 59.5064 32.9727 29.7787 28.5818 27.7202 27.2716 25.4471 24.4325 29.2161 24.241 82.3371 24.1861 24.6153 23.8977 29.0143 23.3678 21.9446 21.5884 21.095 20.6808 20.0521 20.0413 19.5453 19.0538 33.978 18.4114 19.0308 18.1988 17.2374
threshold=2.4436500000000003 1.0278000000000003 3.5393500000000002 1.7325500000000003 0.77240000000000009 1.0000000180025095e-35 1.0000000180025095e-35 1.0000000180025095e-35 1.0000000180025095e-35 3.0490500000000007 4.1429000000000009 4.5000000000000009 7.5000000000000009 0.11165000000000001 1.5000000000000002 3.5000000000000004 1.0000000180025095e-35 0.030450000000000001 1.2768000000000004 0.5394000000000001 1.0000000180025095e-35 1.5000000000000002 1.5000000000000002 2.5000000000000004 8.5000000000000018 6.5000000000000009 2.6854500000000003 2.5000000000000004 8.5000000000000018 2.5000000000000004 10.500000000000002 0.12140000000000002 4.5000000000000009 0.027200000000000005 1.5000000000000002 9.5000000000000018 1.5000000000000002 4.6879500000000007 1.5000000000000002 7.5000000000000009 5.5000000000000009 5.5000000000000009 1.5000000000000002 0.014600000000000002 2.5000000000000004 1.0000000180025095e-35 14.500000000000002 2.5000000000000004 4.5000000000000009 4.5000000000000009 2.5000000000000004 3.5000000000000004 2.5000000000000004 0.99875000000000014 5.5000000000000009 120.50000000000001 0.025150000000000002 2.5000000000000004 0.077300000000000021 3.5000000000000004 5.5000000000000009 9.5000000000000018
decision_type=10 8 8 8 10 2 2 2 2 10 10 2 2 10 2 2 2 10 10 10 2 2 2 2 2 2 10 2 2 2 2 10 2 10 2 2 2 10 2 2 2 2 2 10 2 10 2 2 2 2 2 2 2 10 2 2 8 2 10 2 2 2
left_child=1 4 8 5 7 -3 -5 -1 -2 26 20 16 13 42 -15 30 -6 -18 39 -9 -4 -19 60 -24 -13 -21 58 -25 -16 -30 31 -8 33 -17 -35 -20 -33 -12 61 -14 41 51 43 49 45 -11 47 -44 -38 -7 -40 -31 -52 -26 -22 -37 -28 -58 -10 -60 -23 -36
right_child=2 3 10 6 11 12 15 19 9 44 37 24 18 14 28 32 17 21 35 25 54 22 23 27 53 -27 56 -29 29 40 -32 36 -34 34 38 55 48 -39 50 -41 -42 -43 46 -45 -46 -47 -48 -49 -50 -51 52 -53 -54 -55 -56 -57 57 -59 59 -61 -62 -63
leaf_value=-0.042268918222259672 -0.044606991065359099 -0.027767101914077198 -0.056311903733329109 -0.036570328466278022 -0.030445970181964183 0.0055599579819977452 0.0048702879718048788 0.056898778604456107 -0.0069732884450230421 -0.027168217150322194 -0.052838686432549978 0.026968044201700282 0.025652712849242726 -0.034055411252622327 0.011286698321403117 -0.00053741141717403556 0.031215640420657515 -0.037796064398342807 0.012143793105947038 0.030782383000929694 -0.028745011058839937 0.031874049853687733 -0.053216612833528125 0.021131089770233438 0.039412922693567526 0.047826418832236393 -0.012625003467704808 -0.017806647103811652 -0.041406075726362492 0.0022482786742400863 0.0078765905338204108 -0.034711378629330332 -0.0014238813695361535 -0.041613821419511643 0.0225631150297009 0.019908821119153625 -0.00027191107636236495 -0.061843046586638639 -0.046198570863512027 0.013439623027802173 -0.022284869200783791 0.012213196752929178 0.022288326727844129 -0.031927803895882734 -0.025533109077400896 -0.043315337680168625 0.008797984233351118 0.0091965034356768106 -0.01555381311100789 0.02312776880318523 -0.0053911952788496713 -0.017819523897049726 -0.031370627037366851 0.028561992656296525 -0.04042302521298128 0.0085370051152147668 -0.033357346646620711 -0.0176674518341127 -0.026929162251396539 -0.012193341357390282 -0.0026622892430077788 -0.0090017833848413144
leaf_weight=77.018758691847324 1119.1135598160326 456.97784892842174 658.24141148477793 617.58790084533393 93.03809380531311 329.53236091136932 2801.2248452678323 2388.1851374953985 1665.4429367091507 538.81874701753259 3023.7516275700182 1287.4643203765154 4049.4470780193806 137.84615480527282 1628.7677664346993 923.90296218916774 535.15479578822851 59.744728527963161 2633.9473284594715 364.98023231327534 414.67250053212047 213.68222467601299 50.008995175361633 140.42401130497456 2799.0991276204586 3010.7013551369309 1392.275617480278 94.826408579945564 53.176116362214088 516.81491918116808 3388.298029743135 72.961590718477964 4282.9712104946375 132.46646723710001 49.265052367001772 4073.4702599383891 1419.5410597324371 1265.5336894961074 83.250906646251678 480.67916084825993 92.455280508846045 603.81477627530694 2620.0740918144584 106.16092835366726 3902.8011805508286 432.92406869120896 544.76967722550035 507.07404477149248 302.67270715534687 387.04595517367125 165.14763640984893 174.31860602274537 142.70017905160785 518.00292754918337 4265.3152638738975 418.81482118740678 396.70197382569313 2698.667442580685 253.90405541472137 1607.4395590331405 46.207632437348366 310.08927596360445
leaf_count=229 12964 2558 9935 5020 372 1009 12715 7091 11206 5498 47462 3261 9315 772 4911 5031 1290 209 8802 1100 3774 522 137 295 6738 8108 11128 222 299 1653 15243 469 24581 1209 247 12093 6578 21160 704 1165 349 1735 6886 513 39643 4965 1640 2015 1519 1045 1026 660 1053 1065 55960 1331 3786 22978 2137 11551 125 1888
internal_value=-4.7897e-05 0.0163702 -0.0321295 0.00844277 0.0397911 0.0153619 -0.000889412 0.0492904 -0.021397 -0.0193784 -0.0477414 0.0302798 0.0163814 0.0116907 0.00460296 0.000678751 0.0136636 0.0172869 0.0194794 0.0505209 -0.0414908 0.00493283 0.00967626 -0.00500396 0.0347256 0.0459933 -0.0145532 0.00542685 0.00634966 0.000763718 0.00409068 0.00129873 -0.00379477 -0.00941093 -0.0186852 0.0163738 -0.00427399 -0.0555092 -0.014588 0.0243601 0.00240865 0.00418753 0.0167461 0.00897246 -0.0273072 -0.0343991 0.0184849 0.0201691 -0.00296512 0.0150679 -0.0237082 -0.00283168 -0.0174963 0.0377275 -0.0393947 0.0188508 -0.0175003 -0.0196884 -0.0107992 -0.0142168 0.0257469 -0.00462384
internal_weight=69821.4 46185.8 23635.6 34507.3 11678.5 19815.2 14692.1 5840.89 14008.1 12889 9627.51 5837.65 19358.2 7701.85 3207.19 14074.5 1233.09 1140.05 11656.4 5763.87 5338.23 604.894 545.149 285.259 4604.57 3375.68 8014.43 235.25 3069.35 1440.58 7984.7 4596.4 6089.79 1806.82 882.92 7126.23 1795.18 4289.29 750.453 4530.13 1387.4 1294.95 4494.66 822.739 4874.54 971.743 3671.92 3127.15 1722.21 716.578 391.099 691.134 307.848 3317.1 4679.99 4492.29 4487.65 3095.37 3526.79 1861.34 259.89 359.354
internal_count=430945 166798 264147 136034 30764 58751 77283 16528 125856 112892 138291 14236 56193 23487 10379 72263 3172 2800 32706 16299 69669 1510 1301 654 11064 9208 62786 517 9607 4696 36524 21281 35739 11158 6127 22226 8566 68622 4918 10480 4397 4048 13108 2567 50106 10463 10541 8901 8097 2054 2783 2313 2079 7803 59734 13424 37892 26764 24894 13688 647 2135
is_linear=0
shrinkage=0.05


Tree=9
num_leaves=63
num_cat=0
split_feature=17 17 17 19 17 19 17 17 19 17 19 17 19 9 17 17 17 19 8 19 20 20 20 9 19 17 17 17 19 8 9 11 19 19 47 19 9 19 19 25 9 19 8 15 8 19 9 19 48 49 19 8 21 23 26 25 27 9 19 47 19 19
split_gain=12774.3 2475.74 2160.39 519.482 416.638 313.88 308.635 301.829 286.909 216.605 92.8162 85.4805 80.0022 76.1738 59.5876 58.4235 46.5234 44.733 46.8385 48.0422 42.4935 39.6482 34.2817 30.4566 39.3719 29.6693 29.059 28.7003 28.3876 38.5989 24.1168 23.7804 23.431 22.6562 29.052 22.3686 23.0991 23.0164 20.8915 19.6274 18.8686 18.8135 32.8641 20.0961 18.2216 56.0762 17.9611 27.0402 15.0792 15.0332 14.8328 23.3492 14.8257 14.8201 19.2698 14.7519 16.8419 14.7023 15.432 14.6825 18.6235 14.592
threshold=2.1593000000000004 0.99875000000000014 3.2845000000000004 1.0000000180025095e-35 1.6243000000000001 1.0000000180025095e-35 0.77240000000000009 3.9469000000000007 1.0000000180025095e-35 2.6854500000000003 4.5000000000000009 1.2542000000000002 1.5000000000000002 1.5000000000000002 0.5394000000000001 4.3937500000000007 1.9220500000000003 6.5000000000000009 0.083650000000000016 1.5000000000000002 7.5000000000000009 7.5000000000000009 6.5000000000000009 1.5000000000000002 3.5000000000000004 2.4895000000000005 2.9909500000000002 3.5393500000000002 11.500000000000002 0.13535000000000003 3.5000000000000004 14.500000000000002 1.0000000180025095e-35 4.5000000000000009 2.5000000000000004 21.500000000000004 6.5000000000000009 8.5000000000000018 4.5000000000000009 9.5000000000000018 2.5000000000000004 1.5000000000000002 1.0000000180025095e-35 7.5000000000000009 0.029550000000000003 1.5000000000000002 1.5000000000000002 1.5000000000000002 1.5000000000000002 1.5000000000000002 8.5000000000000018 0.060750000000000005 5.5000000000000009 0.88195000000000012 0.13785000000000003 370.50000000000006 5.5000000000000009 3.5000000000000004 7.5000000000000009 1.0000000180025095e-35 1.5000000000000002 1.0000000180025095e-35
decision_type=10 8 10 2 8 2 10 10 2 10 2 10 2 2 10 10 8 2 10 2 2 2 2 2 2 10 10 10 2 10 2 10 2 2 2 2 2 2 2 2 2 2 10 2 10 2 2 2 2 2 2 10 2 8 8 2 2 2 2 2 2 2
left_child=1 5 8 -3 11 -1 14 12 52 25 13 21 61 44 -7 32 28 18 39 -20 -12 57 -16 -21 -25 31 -11 -14 29 -6 -26 -10 -9 34 -23 36 53 -38 46 -13 -15 42 43 -18 -8 -46 47 -31 -35 -39 51 -33 -2 -19 -55 56 -37 58 -5 -27 -61 -4
right_child=2 3 7 4 16 6 10 15 9 26 20 17 27 40 22 -17 41 35 19 23 -22 33 -24 24 30 59 -28 -29 -30 38 -32 50 -34 48 -36 55 37 49 -40 -41 -42 -43 -44 -45 45 -47 -48 -49 -50 -51 -52 -53 -54 54 -56 -57 -58 -59 -60 60 -62 -63
leaf_value=-0.03277262517273008 -0.034704677922085474 -0.029494468229162348 -0.050931167904278075 0.0084322480359402697 0.008443819897830461 0.054923838064043273 0.031364163578079231 -0.057137456270041798 -0.00064834848192639948 -0.016035165431113396 0.022858041563286427 0.025186061753287883 -0.027312078245255784 0.0018369299547499722 0.029299288806498097 -0.05656531244335701 -0.0060157951047191474 0.017445398558715824 -0.033268459884449625 0.014141925214114693 0.036952641702412914 0.017886022654963672 0.046003038319302178 -0.018422279687043411 0.011183920827216967 -0.0072374406058377198 -0.022647901169238507 -0.035148108974776743 0.011275850311758201 -0.032354032491116472 -0.0086348145044900307 -0.0042303598505755912 -0.04431996726188079 0.025156684078407959 -0.022444055250767186 0.018275066599368825 -0.03447089259655927 0.00066800741789752353 0.0020281060124173337 0.012150259154546721 -0.028561043259767733 0.0015986481253671425 -0.033753622640758089 0.036424510898607168 -0.036467976693413881 0.025030366717571185 -0.020762397739300061 0.0092994685020190964 0.017197665250150013 0.018070074548500164 -0.0038760756927918097 -0.015876293432837515 -0.047234732720405542 0.017582660381100675 0.0038157004983800564 0.0033138872051901853 0.029655516455490034 0.0010047306544836935 0.022458902232217713 -0.042453166699364442 -0.013424858993375997 -0.040164148062811475
leaf_weight=147.81396485865116 639.77210298925638 777.9702511113137 679.38886824250221 410.69778925180435 2497.0584424585104 2216.2507307417691 427.23673529922962 430.03711144160479 2135.4921222254634 3718.0988505259156 654.54613579809666 358.07460042461753 2063.5101575916633 153.74183269590139 352.38149643689394 2520.9547129860148 196.93375653773546 3480.5336372815073 85.237996779382229 578.01497416198254 3086.8232070729136 1157.8839096352458 2829.1009053625166 229.00217431411147 514.59214429929852 1282.2832287214696 3028.7194006741047 2780.5859365928918 2605.5171475671232 49.952227585017681 217.71578047797084 788.53090709075332 2588.2033832706511 4224.5375728234649 45.620739459991455 767.47051039338112 33.61325054615736 309.26085128635168 1126.5944196470082 1507.0042330808938 75.344996690750122 4446.5484081916511 104.71262297779322 31.468456599861383 43.901054631918669 213.27727575972676 222.41209169477224 164.58061521500349 704.03665804862976 206.38062265887856 1558.5108434166759 949.17587427794933 398.37212439067662 498.06352106481791 519.46049635484815 100.95301472395658 575.02548360452056 238.63012612611055 377.71038042008877 56.80232360586524 1395.9236687123775 649.97929299063981
leaf_count=547 6116 5378 10233 1188 10490 7091 1094 7367 12985 31915 1771 1012 23127 374 1100 43769 992 10451 531 1749 7833 2877 8108 1045 1582 8987 29916 36013 10798 370 811 4754 39288 9631 143 2293 127 953 4789 4733 187 22745 801 134 184 553 1143 700 1674 632 9722 6437 5470 1409 1566 326 1674 681 1039 571 10673 8293
internal_value=-5.86099e-05 0.0181666 -0.0261228 0.0107939 0.0118914 0.0393866 0.0404507 -0.0424282 -0.0141484 -0.0123774 0.0310036 0.0168241 -0.0348132 0.0166878 0.0485905 -0.0509074 0.00450409 0.0138307 0.00926085 0.00305124 0.0344936 0.0209947 0.0441627 0.00508269 -0.000373469 -0.00689915 -0.0190066 -0.0318164 0.00720304 0.00458755 0.00528805 -0.00475918 -0.0461645 0.0225184 0.0163399 0.0162857 0.0147097 0.00501857 -0.0015726 0.0146651 -0.00824142 0.000739186 -0.0107037 -3.52275e-05 0.0250319 0.0144318 -0.0108399 -0.000504324 0.0240235 0.00765451 -0.00742142 -0.0105971 -0.0395537 0.0158917 0.0105651 0.0217827 0.0231681 0.0118845 0.0151721 -0.0111458 -0.0145883 -0.0457009
internal_weight=67228 39563.7 27664.3 29363.3 28585.3 10200.4 10052.6 11712.7 15951.7 14913.5 4654.87 17139.5 6173.46 913.502 5397.73 5539.2 11445.8 9980.4 3489.64 1624.56 3741.37 7159.12 3181.48 1539.33 961.31 8166.72 6746.82 4844.1 6666.11 4060.6 732.308 5431.71 3018.24 6132.08 1203.5 6490.76 5047.31 549.255 1563.54 1865.08 229.087 4779.66 333.115 228.402 684.415 257.178 436.945 214.533 4928.57 515.641 3296.22 1737.71 1038.14 4498.06 1017.52 1443.45 1342.5 1027.04 788.408 2735.01 1452.73 1329.37
internal_count=430945 135309 295636 106467 101089 28842 28295 168090 127546 115960 11996 48127 77666 2392 16299 90424 52962 30894 11463 5718 9604 17233 9208 5187 3438 54129 61831 59140 28290 17492 2393 33898 46655 14325 3020 19431 15138 1712 7002 5745 561 24672 1927 1126 1831 737 2213 1070 11305 1585 20913 11191 11586 13426 2975 4293 3967 2908 2227 20231 11244 18526
is_linear=0
shrinkage=0.05


Tree=10
num_leaves=63
num_cat=0
split_feature=14 14 14 14 14 19 14 19 19 19 14 19 14 19 14 11 19 8 14 14 19 8 19 19 8 19 19 8 19 11 9 9 21 9 19 8 14 15 13 1 11 9 19 19 8 9 19 15 13 47 24 21 4 19 2 19 4 23 15 22 28 19
split_gain=11214.5 2468.9 1573.72 583.466 277.189 257.162 227.537 227.426 198.044 183.404 163.955 107.115 93.0494 69.6226 53.9812 48.8157 45.1755 76.3522 40.5001 39.9036 37.9275 45.8386 70.585 37.41 56.1691 39.2271 37.1403 31.0574 33.6071 28.7063 28.0608 27.9053 26.1665 25.8247 25.6803 34.1199 23.3176 23.1048 21.6082 21.0723 20.5147 19.9456 35.9156 20.0917 47.4156 18.6241 21.8683 18.3308 17.914 17.6805 17.3668 17.2542 20.9186 18.8447 16.9071 16.8586 15.8537 15.2624 14.7858 14.5272 14.2872 14.0831
threshold=10.155000000000003 2.7150000000000003 29.485000000000003 5.6550000000000011 2.1650000000000005 1.0000000180025095e-35 62.985000000000007 1.0000000180025095e-35 1.0000000180025095e-35 1.0000000180025095e-35 17.225000000000005 4.5000000000000009 4.0850000000000009 1.0000000180025095e-35 1.6250000000000002 11.500000000000002 1.5000000000000002 1.0000000180025095e-35 41.435000000000009 7.3050000000000006 7.5000000000000009 0.04370000000000001 1.5000000000000002 1.0000000180025095e-35 0.023950000000000003 1.5000000000000002 3.5000000000000004 0.019300000000000001 1.5000000000000002 12.500000000000002 1.5000000000000002 1.5000000000000002 3.5000000000000004 5.5000000000000009 2.5000000000000004 1.0000000180025095e-35 102.90500000000002 7.5000000000000009 18.500000000000004 74.490000000000023 13.500000000000002 1.5000000000000002 2.5000000000000004 1.5000000000000002 1.0000000180025095e-35 2.5000000000000004 4.5000000000000009 5.5000000000000009 13.500000000000002 4.5000000000000009 153.50000000000003 2.5000000000000004 238275.00000000003 9.5000000000000018 74.450000000000017 6.5000000000000009 504850.00000000006 0.55055000000000009 3.5000000000000004 12.500000000000002 28.500000000000004 1.0000000180025095e-35
decision_type=10 8 8 8 10 2 10 2 2 2 10 2 10 2 10 10 2 10 10 8 2 10 2 2 10 2 2 10 2 10 2 2 2 2 2 10 10 2 2 10 10 2 2 2 10 2 2 2 2 2 2 2 2 2 10 2 2 8 2 10 2 2
left_child=1 4 7 5 8 -3 13 -2 -1 -5 32 23 20 -4 -10 -14 17 38 -15 48 21 37 -23 -6 58 -26 27 -17 -29 -22 -27 47 -9 -24 35 -12 61 50 -11 -31 -21 43 -43 44 -34 60 -47 -30 -18 -41 -7 52 -28 -54 -42 -16 -50 -45 -25 -59 -36 -8
right_child=2 3 6 9 11 12 36 10 14 16 34 -13 15 18 55 26 19 -19 -20 40 29 22 33 24 25 30 51 28 31 39 -32 -33 41 -35 45 -37 -38 -39 -40 49 54 42 -44 57 -46 46 -48 -49 56 -51 -52 -53 53 -55 -56 -57 -58 59 -60 -61 -62 -63
leaf_value=-0.037853256255392848 -0.039797106678633988 -0.025108692522139344 -0.050907117290235962 -0.031056526769752214 -0.023646684776273894 0.019658661965909621 -0.05799841116809034 -0.0031254863015497585 0.054701871377093619 0.018748203909364689 -0.02021760662222576 0.032700141298774903 0.017491442288014868 -0.030239961471508526 0.037494524906765088 0.009241586167164707 -0.0063149862615654645 -0.033595100622284463 -0.038794328962962275 0.0037016126483486026 0.025404219818647086 -0.030617341699872444 0.012412996265938293 0.014253971204732397 -0.042135863073329144 0.022132605732969761 0.015198698737775679 -0.035761919606039382 -0.0025336903632516179 0.013838682183968479 -0.0038103661081518164 -0.017506781941189625 -0.0074492109672709209 -0.023103507790792805 -0.01563995410577616 -0.03855810742104384 -0.05744820202420288 0.041231306800735092 -0.0051284049199425003 0.021472294207781305 -0.006100335986657577 -0.044167033257692029 -0.013119939606522005 -0.0033896752881756378 -0.039831949145027724 -0.04212479384312455 -0.021869545351526035 0.024679080045521599 0.0072266832655565848 0.0048654669621736053 -0.013303605095646744 0.0059502074259790219 -0.0037189221067078929 0.010707797923396932 0.00061217615514828905 0.045529622148851194 -0.0021700897316375453 -0.011543066250675478 0.035582408593507052 0.023268941752997541 -0.025981653958127234 -0.047350491178154
leaf_weight=69.170613095164299 955.86284009739757 405.97730818763375 737.5144635476172 449.94219651445746 61.998051967471838 1602.3307206965983 391.51666625309736 1291.9686324000359 1559.0118986163288 121.5830790027976 595.10309715569019 3548.4211197160184 2103.2767582684755 2806.3741844259202 921.7957242615521 469.84647948294878 301.03213524445891 239.52716276794672 2791.2846818910912 1843.1955883000046 1955.2552251033485 102.08754236251116 2354.8159939534962 114.51818910241127 40.551964394748211 201.93813821673393 2248.7696569822729 91.554483231157064 161.47126063331962 1771.1808882392943 213.78580265492201 183.77716800570488 370.7370532695204 51.430713057518005 2530.9145683739334 447.4925238750875 1297.2732532760128 123.87798950448632 416.44364657253027 3128.382909823209 1872.154962008819 96.012135086581111 2480.0229111034423 1535.9644754100591 162.02731130830944 148.28029679320753 1372.085092894733 99.173283018171787 4290.1913382709026 169.63778573274612 40.325007818639278 1509.2330360896885 305.38555828481913 869.01829782128334 1878.8299136571586 2613.0151376016438 500.85021939128637 1281.8105162121356 296.26785828918219 29.784890003502369 387.31011912412941 2140.6250158520415
leaf_count=241 11810 2613 12233 3941 304 4136 7313 7631 5396 546 5851 9547 7193 34683 3013 1665 1444 1889 40980 10110 4928 559 6413 330 178 551 7208 587 583 4560 560 917 2620 193 24695 5204 24330 299 2167 7961 10881 1030 20275 11204 1772 1637 13979 323 19545 437 119 6348 1056 2816 10586 7983 2470 9800 759 191 3934 36952
internal_value=-5.73274e-05 0.0157064 -0.027355 0.00896006 0.0378591 0.0142321 -0.0422574 -0.0162841 0.0457581 0.000221344 -0.0145156 0.0287426 0.0150591 -0.0364282 0.0469006 0.0109456 0.00145157 -0.0101767 -0.0345118 0.00229854 0.0179854 0.0142646 0.00991304 0.0136085 0.0162965 0.00420383 0.0086246 -0.000131978 -0.00835092 0.0202474 0.00881432 -0.00263643 -0.00957891 0.0116446 -0.0210409 -0.0281189 -0.0518888 0.0204344 0.000291994 0.0182537 -0.000616529 -0.0109779 -0.0142938 -0.00844755 -0.0173538 -0.0193723 -0.0238714 0.00787531 0.00550055 0.0206198 0.0188419 0.0104099 0.0123738 0.00695638 -0.00273884 0.0434455 0.00624411 -0.00677572 0.0296856 -0.0107354 -0.0170209 -0.0490191
internal_weight=65151 41301 23850 31660.6 9640.47 19746.8 10164.6 13685.4 5162.99 11913.8 12729.5 4477.48 19340.8 6335.17 5093.82 8041.51 11463.8 777.554 5597.66 10686.3 11299.3 4274.87 2508.33 929.06 867.062 456.276 5938.23 1005.82 535.976 7024.46 415.724 444.422 7248.33 2406.25 5481.19 1042.6 3829.41 1766.53 538.027 5069.2 5594.18 5956.36 2576.04 3380.32 532.764 4438.59 1520.37 260.645 5092.07 3298.02 1642.66 4932.41 3423.17 1174.4 3750.98 3534.81 4791.04 2847.56 410.786 1311.6 2918.22 2532.14
internal_count=431479 153355 278124 124493 28862 60914 156491 121633 16633 63579 109823 12229 58301 87896 16392 28696 59638 4602 75663 55036 29605 11719 7165 2682 2378 1289 21503 4075 2410 17886 1111 1823 54523 6606 55300 11055 68595 4554 2713 12958 31577 46892 21305 25587 4392 44245 15616 906 23459 8398 4255 17428 11080 3872 21467 10996 22015 21195 1089 9991 28629 44265
is_linear=0
shrinkage=0.05


Tree=11
num_leaves=63
num_cat=0
split_feature=17 17 17 19 17 17 17 17 19 19 19 19 19 19 8 19 17 9 19 8 17 17 17 19 8 19 47 17 19 8 19 9 17 19 11 9 19 47 19 26 5 9 8 19 13 19 8 9 19 11 19 42 19 19 23 7 40 19 4 8 9 19
split_gain=9815.96 1958.55 1769.6 373.985 326.936 252.648 247.886 212.948 156.501 112.499 102.515 85.2869 63.861 63.3643 55.1144 89.5561 49.7632 46.727 42.8156 64.4271 41.2585 37.1901 36.6436 32.9844 43.5309 29.9697 24.5468 24.325 23.3361 40.0129 30.4016 28.8162 22.4053 21.2374 21.0622 20.2996 34.4794 20.2178 27.4965 20.0117 20.9916 19.9376 18.9045 28.7909 18.9036 18.2275 18.0922 17.647 46.5705 17.1382 17.3128 27.6318 16.9441 16.8547 16.8111 16.6032 16.5632 16.2441 15.6574 15.5696 15.2278 14.6507
threshold=2.1593000000000004 0.99875000000000014 3.3839000000000006 1.0000000180025095e-35 1.6610500000000001 2.6854500000000003 0.77240000000000009 4.1429000000000009 1.0000000180025095e-35 1.0000000180025095e-35 1.0000000180025095e-35 4.5000000000000009 4.5000000000000009 1.0000000180025095e-35 0.020500000000000004 1.5000000000000002 0.48550000000000004 2.5000000000000004 5.5000000000000009 0.095450000000000021 1.2768000000000004 3.7241000000000004 3.0490500000000007 1.0000000180025095e-35 0.023950000000000003 1.5000000000000002 1.5000000000000002 1.8009000000000002 3.5000000000000004 0.014600000000000002 1.5000000000000002 2.5000000000000004 4.4848500000000007 3.5000000000000004 13.500000000000002 3.5000000000000004 8.5000000000000018 1.5000000000000002 1.5000000000000002 0.18105000000000002 24.500000000000004 1.5000000000000002 0.025150000000000002 2.5000000000000004 177.50000000000003 2.5000000000000004 0.31645000000000006 1.5000000000000002 2.5000000000000004 23.500000000000004 7.5000000000000009 0.11395000000000001 4.5000000000000009 1.5000000000000002 1.0357000000000001 0.55395000000000005 43.500000000000007 6.5000000000000009 869075.00000000012 0.014600000000000002 2.5000000000000004 1.5000000000000002
decision_type=8 10 10 2 10 10 10 10 2 2 2 2 2 2 10 2 10 2 2 10 10 10 10 2 10 2 2 10 2 10 2 2 10 2 10 2 2 2 2 8 2 2 8 2 2 2 10 2 2 10 2 8 2 2 10 10 2 2 2 8 2 2
left_child=1 6 5 -3 12 10 8 13 -1 -7 -2 23 14 -4 -5 -16 -10 44 19 61 26 -15 42 -8 -25 -26 -14 -20 29 -12 -31 -32 -9 -19 -22 -30 52 38 -21 40 46 -27 -11 -44 47 -39 -36 55 -49 50 51 -28 -37 59 58 -17 -41 -18 -29 -24 -40 -6
right_child=2 3 7 4 18 9 11 32 16 22 28 -13 20 21 15 17 57 33 27 37 34 -23 53 24 25 41 49 54 35 30 31 -33 -34 -35 39 36 -38 45 60 56 -42 -43 43 -45 -46 -47 -48 48 -50 -51 -52 -53 -54 -55 -56 -57 -58 -59 -60 -61 -62 -63
leaf_value=-0.035521667038514969 -0.031838139749434571 -0.026411035076573115 -0.049094323646868582 0.015442213845752992 -0.0028521889878058214 -0.040408060921502509 -0.022075382346566592 -0.046139428796002316 0.052976129242698844 -0.010116549692900252 -0.004200541351192303 0.031295807745018681 0.022598735674585316 -0.028866649692706088 -0.029309452500726946 0.0092866613767709685 0.035832420128271758 -0.032554034271002438 0.010318061476855168 -0.029770029110931504 0.017816650765578219 -0.03721912065681033 -0.022969766810868267 0.028492119258657956 -0.03763633132697302 0.020947931897095415 -0.017742469776411668 0.0053667251553387845 -0.0028552677439926703 -0.036303604619787065 -0.010101546431461309 -0.042844150523639962 -0.054165321106177639 -0.0027661404590401664 0.018236294042370264 -0.052366601905938351 -0.0052845762355877846 -0.044146720454636829 0.0018925368451609276 0.0029004775563165977 0.0065605096456987939 -0.0012276029369252925 -0.030695460435520946 -0.015491065176207429 0.0046207094913462924 -0.01455653276125099 0.009381492819803685 -0.032098724466966634 0.016607870556067768 0.010590894341956711 0.021035689864717939 0.017240825605201564 -0.018548667555822657 -0.021068372191252595 -0.0071967752876467206 0.028310628534500688 0.015323657647867315 0.043913706808904197 -0.0081885506399786197 -0.045502496682073762 -0.017138760085073267 0.0067230513530940356
leaf_weight=60.124037198722363 408.75537489168346 693.91315477341413 696.53368981648237 1842.628246139735 535.98774911463261 620.74393929354846 58.59090618416667 1808.3477770481259 1451.1707164738327 1297.4467321168631 984.67870881222188 3407.4322149306536 3223.6743467822671 2715.7689056834206 187.95592980831861 181.42910273373127 878.89864841476083 84.497591152787209 2113.4527297019958 98.938488284125924 2488.8699331842363 2675.8771442156285 172.73749815672636 395.40990523993969 35.728824349120259 195.9844336733222 77.567442528903484 4115.4413546044379 4321.4159177746624 194.73607854172587 591.86519599333405 75.013986423611641 1824.3355150911957 200.07142666354775 2194.323551941663 40.802569091320038 1258.8510532192886 59.586992086842656 557.16242494061589 873.62444683909416 755.82386955618858 208.58265257626772 357.00360876321793 2468.0661657601595 739.91641772538424 388.83882331848145 787.41879513114691 62.248167730867863 218.30710434168577 926.25997937098145 1542.5275877341628 200.03559656813741 360.14807170629501 2814.2647022753954 319.84641811624169 317.23545980453491 386.62874278798699 2466.1254981309175 223.78932170197368 143.34205326624215 128.50648986548185 1562.144605178386
leaf_count=241 4584 5358 12233 5459 2785 8422 304 32780 5396 11165 6285 9547 7971 34683 1135 506 3013 450 8843 845 7796 40980 1909 1089 178 551 214 20907 28900 1917 4365 688 35815 709 7019 360 8940 431 2793 2921 2577 560 3816 22946 2392 2108 2674 366 656 2371 3816 524 2708 30488 1626 848 1267 7983 1240 1823 718 7485
internal_value=-6.3183e-05 0.0163624 -0.0237478 0.00981486 0.0107334 -0.0135805 0.0364409 -0.0405943 0.0441867 -0.0199843 -0.00745697 0.0276884 0.0149086 -0.0348651 0.00921214 0.0034434 0.0451931 0.00687077 0.00358732 -0.00105346 0.0165309 -0.0330181 -0.018231 0.0139237 0.016471 0.00563521 0.0196339 0.00586978 -0.00617988 -0.0110929 -0.0189558 -0.0138432 -0.0501838 -0.0116941 0.0140543 -0.0046617 -0.00936033 -0.0101195 -0.00526778 0.0121775 0.0140151 0.00954005 -0.0151263 -0.0174226 0.0103538 -0.018578 0.0159018 0.0157848 0.00572548 0.0161469 0.0189669 0.00743725 -0.0221119 -0.0223136 0.00385016 0.0214216 0.00672087 0.0418017 0.00466591 -0.0332996 -0.00169403 0.00427677
internal_weight=63077.4 37246.7 25830.7 28088.7 27394.7 16109.9 9158.05 9720.86 4856.32 7873.6 8236.27 4301.73 17291 6088.18 3834.29 1991.66 4796.19 1803.71 10103.7 3331.17 13456.8 5391.65 7252.86 894.297 835.706 440.296 5970.06 6772.53 7827.51 1846.29 861.615 666.879 3632.68 284.569 7486.69 5981.22 1659.8 1233.03 784.607 4997.82 3737.57 404.567 4122.52 2825.07 1519.14 448.426 2981.74 779.22 280.555 2746.39 1820.13 277.603 400.951 3130.34 4659.08 498.665 1260.25 3345.02 4339.23 316.08 685.669 2098.13
internal_count=431479 135672 295807 106810 101452 139316 28862 156491 16633 80569 58747 12229 51671 87896 12521 7062 16392 5927 49781 17165 39150 75663 72147 2682 2378 1289 14896 32616 54163 13255 6970 5053 68595 1159 24254 40908 12008 6895 4356 16458 12270 1111 37927 26762 4768 2539 9693 2376 1022 6925 4554 738 3068 34220 23773 1354 4188 10996 22147 3732 3511 10270
is_linear=0
shrinkage=0.05


Tree=12
num_leaves=63
num_cat=0
split_feature=14 14 14 14 14 19 19 19 14 19 14 14 19 14 19 14 19 19 8 11 8 19 9 11 19 9 8 19 9 19 19 11 15 14 1 11 23 14 25 8 19 8 25 19 8 47 19 14 48 19 35 15 4 3 25 7 25 12 13 24 19 11
split_gain=8643.9 2159.49 1016.56 581.045 271.496 203.348 164.277 149.956 130.398 124.08 123.234 84.5867 74.5911 46.1272 46.073 39.2875 37.848 37.4115 31.4923 28.3054 27.7321 25.5048 38.3707 24.7448 24.4514 25.5292 22.6749 41.1889 20.6355 33.5226 20.4212 19.7694 19.3377 19.1055 18.2845 18.0591 16.8012 15.922 15.9112 15.5951 15.4286 14.6135 14.8778 14.5571 31.3287 14.2721 16.8982 14.2428 13.7157 13.6513 16.8895 16.4372 13.5715 14.8926 13.2867 13.2569 16.7601 20.0757 14.386 13.2401 13.2097 13.1535
threshold=11.875000000000002 2.7950000000000004 35.445000000000007 6.0550000000000006 2.1650000000000005 1.0000000180025095e-35 1.0000000180025095e-35 1.0000000180025095e-35 70.355000000000004 1.0000000180025095e-35 21.095000000000002 4.0850000000000009 4.5000000000000009 1.6250000000000002 1.5000000000000002 8.3950000000000014 5.5000000000000009 1.0000000180025095e-35 0.035850000000000007 13.500000000000002 0.10825000000000001 2.5000000000000004 1.5000000000000002 13.500000000000002 2.5000000000000004 1.5000000000000002 0.034650000000000007 2.5000000000000004 2.5000000000000004 5.5000000000000009 3.5000000000000004 14.500000000000002 5.5000000000000009 45.715000000000011 75.245000000000019 9.5000000000000018 0.89445000000000008 13.425000000000002 22.500000000000004 0.020500000000000004 6.5000000000000009 0.26370000000000005 374.50000000000006 1.5000000000000002 0.014600000000000002 2.5000000000000004 1.5000000000000002 140.60000000000005 1.5000000000000002 7.5000000000000009 8.5000000000000018 5.5000000000000009 297050.00000000006 74.750000000000014 45.500000000000007 0.73715000000000008 101.50000000000001 2645.0000000000005 14.500000000000002 94.500000000000014 1.0000000180025095e-35 246.50000000000003
decision_type=10 8 8 8 10 2 2 2 10 2 10 10 2 10 2 8 2 2 8 10 10 2 2 10 2 2 8 2 2 2 2 10 2 10 10 10 10 10 2 10 2 10 2 2 10 2 2 10 2 2 2 2 2 10 2 10 2 2 2 2 2 10
left_child=1 4 6 5 9 -3 -2 -5 14 -1 26 19 17 -11 -4 21 20 -6 -19 48 38 22 43 -18 25 -21 59 -28 36 -30 39 -17 -25 -16 55 -22 61 -29 -13 -12 54 42 -36 44 -9 46 -37 60 49 50 51 -7 53 -48 -15 56 57 58 -26 -8 -10 -23
right_child=2 3 8 7 12 11 10 15 47 13 30 16 -14 40 33 31 23 18 -20 24 35 28 -24 32 34 -27 27 37 29 -31 -32 -33 -34 -35 41 45 -38 -39 -40 -41 -42 -43 -44 -45 -46 -47 52 -49 -50 -51 -52 -53 -54 -55 -56 -57 -58 -59 -60 -61 -62 -63
leaf_value=-0.031828544817959541 -0.038551631914875428 -0.023169243679294758 -0.045269695013860529 -0.028951937386255806 -0.022776933470070738 0.015904936750336426 -0.0068381306759591476 -0.00011143516582775405 -0.057048524547359258 0.051361065617969964 -0.022988586807225965 0.014817758709891785 0.028907627892867511 0.0419334758981686 -0.02948499305229868 -4.0227121370970579e-05 0.015880708251775493 0.028405659792558515 0.0095136992147327026 0.007367227245825338 0.01718838279141285 0.0076970568979203282 -0.038112886445073317 0.011609180581511865 0.019931808910611328 -0.031747865912522689 -0.027215159986016969 -0.0071295548306466302 -0.017712091660367652 0.0017369447554285398 -0.020793201552234256 -0.0061953200508942305 0.0043944439297813158 -0.036810751069326346 0.020850636698956353 -0.027125728579958642 -0.0025763055641331981 -0.014327478300583538 0.0048402816524746638 -0.03417995023850913 0.042367027874788993 0.012689033560583271 0.0033993454356062722 0.0045827317271288038 -0.030343802435524727 -0.021478174763126356 0.0077526601255809144 -0.058103558883927035 0.010682600895344915 0.023810192880461351 0.005623163048905342 0.03057381711705618 -0.022882639456261851 -0.0072837193535384608 0.028936390866278822 0.016002448714027503 0.01489932763886037 0.037427683477872883 0.00040957321005835536 -0.021004281373453004 -0.046549669968847796 -0.02059868818500861
leaf_weight=54.550455555319786 913.69930152408779 399.81871018186212 1131.7042756956071 486.7983024418354 64.793997310101986 707.3917572312057 1985.8791452795267 291.78714364394546 381.91195857618004 1351.5146050155163 670.2847298970446 609.9166765473783 3890.4761205948889 343.92331694811583 1590.9976498382166 2153.360529910773 2123.2004577014595 341.8983477242291 623.28485441766679 546.72709705680609 108.22246495634317 2762.3566535748541 82.680701924487948 2854.7122154030949 106.94827134534717 44.168212100863457 539.0099772028625 1032.3955148383975 249.80594436451793 1898.737621191889 3232.2804842153564 3308.6654317025095 1379.0352195985615 2129.4717785166577 2128.9815240316093 61.09073793888092 510.85870436578989 3040.1664892714471 1159.8387220930308 602.08564076945186 2330.8032443448901 1053.1044540293515 130.01468356698751 377.66545899584889 120.32542613334954 106.06393023580313 427.5273858755827 472.64103310741484 372.35388081148267 1714.1873036213219 263.64091100916266 263.92474951222539 58.610490016639233 266.49286568537354 495.88678479194641 1224.1733299046755 695.43949377536774 43.196114711463451 750.42752297222614 179.253094593063 1974.3279312523082 40.759006597101688
leaf_count=241 13189 2932 20034 4920 362 2026 16231 1467 8126 5396 7830 2265 11020 1173 22525 13621 7567 937 1863 1707 441 14017 590 10805 264 239 5589 7942 1520 9887 37491 22095 5358 35310 5621 490 2724 28239 4659 7747 7983 2950 364 1889 1039 515 1768 9774 1055 4559 786 710 279 1156 1840 3359 1853 117 2100 1558 39139 226
internal_value=-4.21488e-05 0.0129751 -0.027142 0.00674058 0.0339021 0.0120841 -0.0181655 -0.00178543 -0.0413896 0.0426705 -0.0165111 0.0128194 0.0257392 0.0435761 -0.0363971 -0.000662055 0.00934121 0.0137548 0.0162283 0.0159881 0.00449291 0.00201708 -0.00591681 0.0114739 0.0141176 0.00439476 -0.0122474 -0.0142299 0.00328511 -0.000531535 -0.0229213 -0.00376917 0.00926076 -0.0336868 0.0150536 -0.00203749 0.00575897 -0.012505 0.00828528 -0.028307 0.0402425 0.0175764 0.0198482 -0.00250232 -0.00899053 -0.00431583 -0.0020552 -0.049937 0.0197689 0.0209121 0.0168734 0.0199181 1.30553e-05 0.00197675 0.0343026 0.0120856 0.0090732 0.00456262 0.00286514 -0.00802011 -0.0482749 0.00727842
internal_weight=61256.3 41380.1 19876.1 31883 9497.13 19599.2 12195.1 12283.8 7681.05 4576.68 11281.4 19199.4 4920.45 4522.13 4852.17 11797 9154.71 1029.98 965.183 10044.7 2797.76 6334.98 872.459 6356.95 6723.18 590.895 6776.7 4611.57 5462.52 2148.54 4504.65 5462.03 4233.75 3720.47 6132.29 1028.01 3313.97 4072.56 1769.76 1272.37 3170.61 3312.1 2259 789.778 412.113 919.785 813.721 2828.88 3321.5 2949.14 1234.96 971.317 752.631 694.02 839.81 2820.18 1596.01 900.572 857.376 2165.13 2356.24 2803.12
internal_count=431479 170755 260724 139940 30815 65945 125816 73995 134908 16633 112627 63013 14182 16392 77869 69075 35303 3162 2800 27710 11573 33359 4985 23730 18574 1946 59559 41770 28374 11407 53068 35716 16163 57835 16628 4649 16967 36181 6924 15577 10996 8935 5985 4395 2506 4208 3693 57039 9136 8081 3522 2736 3203 2924 3013 7693 4334 2481 2364 17789 47265 14243
is_linear=0
shrinkage=0.05


Tree=13
num_leaves=63
num_cat=0
split_feature=14 14 14 14 14 14 19 19 19 14 19 19 14 19 14 14 20 19 19 8 19 20 19 8 19 14 9 19 19 8 14 14 19 8 19 8 47 19 19 8 8 15 26 8 19 42 11 25 28 35 9 26 47 19 6 21 40 19 19 19 20 15
split_gain=7642.34 1738 1186.38 415.168 205.378 179.686 161.677 149.698 136.596 126.507 99.8907 66.3965 52.8247 52.5562 45.4851 43.1383 32.9812 27.5617 25.578 25.0812 27.4642 24.997 24.431 35.0795 25.1709 23.7603 22.7048 26.2878 22.662 31.6828 22.0283 20.5735 19.8291 28.082 18.6494 39.9545 18.5228 28.7085 18.4291 21.553 18.1778 17.7424 17.2301 17.1194 25.5037 15.8328 19.6309 22.9324 15.5459 15.3943 15.0525 14.924 14.2027 14.6477 16.9646 27.2575 13.9515 16.0524 13.8945 13.8829 14.0204 13.8275
threshold=10.155000000000003 2.7150000000000003 30.355000000000004 5.2650000000000006 2.1650000000000005 62.985000000000007 1.0000000180025095e-35 1.0000000180025095e-35 1.0000000180025095e-35 17.485000000000003 1.0000000180025095e-35 4.5000000000000009 3.7450000000000006 1.5000000000000002 6.7250000000000005 1.6250000000000002 8.5000000000000018 25.500000000000004 5.5000000000000009 0.14830000000000002 1.5000000000000002 6.5000000000000009 1.0000000180025095e-35 0.023950000000000003 1.5000000000000002 41.435000000000009 1.5000000000000002 2.5000000000000004 1.5000000000000002 1.0000000180025095e-35 108.62500000000001 12.825000000000001 11.500000000000002 0.12025000000000001 1.5000000000000002 0.023950000000000003 1.5000000000000002 5.5000000000000009 2.5000000000000004 1.0000000180025095e-35 0.31645000000000006 7.5000000000000009 0.13115000000000002 0.033500000000000009 2.5000000000000004 0.23535000000000003 20.500000000000004 374.50000000000006 28.500000000000004 23.500000000000004 1.5000000000000002 0.22735000000000002 5.5000000000000009 12.500000000000002 18.500000000000004 1.5000000000000002 2.5000000000000004 1.5000000000000002 1.0000000180025095e-35 29.500000000000004 12.500000000000002 3.5000000000000004
decision_type=8 10 10 10 10 10 2 2 2 10 2 2 10 2 10 10 2 2 2 10 2 2 2 10 2 10 2 2 2 10 10 10 2 10 2 10 2 2 2 10 10 2 8 10 2 8 8 2 2 2 2 10 2 2 2 2 2 2 2 2 2 2
left_child=1 4 6 7 10 13 -2 -3 -5 31 -1 22 17 -4 32 -12 -13 19 26 45 -21 -17 -6 61 -25 -15 34 -28 29 41 58 59 33 -10 35 -14 42 -38 39 -11 49 -16 -30 -33 -45 46 47 51 -40 -20 -26 -9 53 54 -22 -56 -48 -58 -7 60 -8 -24
right_child=2 3 5 8 11 30 9 12 14 38 15 16 18 25 28 21 -18 -19 40 20 52 -23 23 24 50 -27 27 -29 36 -31 -32 43 -34 -35 -36 -37 37 -39 48 -41 -42 -43 -44 44 -46 -47 56 -49 -50 -51 -52 -53 -54 -55 55 -57 57 -59 -60 -61 -62 -63
leaf_value=-0.028518832953886269 -0.035171517228094626 -0.021603485642152944 -0.041771839640381191 -0.026432598811576519 -0.01989635985247146 -0.054025937481373312 -0.0073897766322223229 0.02299972107195811 0.0071131871947473814 -0.018480057053336125 0.049826559442199977 0.020824539900069529 0.0086908415729398236 -0.025955191075876211 -0.0072781021956298446 0.025940981267587801 0.032083954492356029 0.024469515774210887 0.014896634966376983 -0.030215609239221383 0.012015235370448555 0.04037858971561472 0.011019032531478214 -0.035988326427940913 0.018906129812511066 -0.033531611631043526 -0.03237368880814543 0.001758477926435008 0.0045620757455315797 -0.02953672455324214 -0.053899947663404446 -0.0064787765827950252 0.0094746418276604964 -0.0025736983547113026 0.012196281012144712 -0.027659996925034448 -0.016902256019513031 -0.0011487022275882628 -0.015933487499854525 -0.033673217816675649 0.0073133715772599724 0.023322517361448719 -0.0017424784306061154 -0.029225790763393867 -0.011763714936502967 0.025306250184247332 0.02164372023247459 -0.0056110743460182537 -0.024536058736826325 0.0043741331191682054 -0.00078039438806030851 0.0017921084861928626 -0.0037678972009915091 0.017293356513637788 -0.021913880458671396 0.021352274116772877 -0.010476847136423531 0.011495929264586584 -0.042964668355826366 0.0087032334807240659 0.0032330840967994298 0.032473109617123602
leaf_weight=50.138076700270176 857.14428489468992 307.76684671640396 1191.6082770666108 439.03319180756807 52.132157482206821 353.18661158252507 2788.565223544836 1463.2314688712358 1781.3843841254711 557.77961586043239 1262.3677197564393 928.31733904406428 320.14615024253726 2055.6842950144783 307.41831802204251 345.90458931401372 2240.255019005388 929.95944178849459 4152.6178968083113 36.457860961556435 1969.6482747457922 2667.7109914831817 106.66763179376721 33.035207830369473 189.32784005254507 2145.4997666878626 61.111521933227777 613.86708295345306 2649.7632601875812 155.10325793363154 945.93815931305289 1378.0018429066986 1970.8125951848924 1288.7014591805637 1372.9159178026021 97.862882696092129 342.55951334536076 1828.77551083453 3521.3439457025379 407.89798495080322 1307.4895423669368 54.973900131881237 1832.4886175449938 232.09451696462929 2088.1595424860716 657.36626967787743 314.29217661172152 79.881196197122335 621.73490930534899 380.44263786450028 198.06971161067486 88.123697098344564 123.7002969942987 1461.3984274491668 93.644622154533863 58.193648792803288 89.875498797744513 1000.3763817995787 1968.7436956446618 163.42384915240109 348.96218131296337 264.57470128685236
leaf_count=241 12234 2265 21097 4277 304 7868 20318 3853 8187 6023 5396 2842 1083 27973 1776 1365 6705 2419 13825 227 5486 9631 330 178 551 35481 412 2391 15166 1409 21137 11147 8920 6387 4694 699 2317 10766 38219 5348 4622 279 10937 2557 18659 1703 828 231 7035 1345 560 235 341 3829 244 208 281 2715 39590 1074 2500 759
internal_value=-4.38646e-05 0.0134687 -0.0237684 0.00779346 0.0336328 -0.0380965 -0.0141951 0.0129017 0.000936568 -0.0127073 0.0411934 0.0254729 0.01354 -0.0324771 0.0019226 0.0420173 0.0287928 0.0163453 0.0107128 0.0153261 0.0124346 0.0387306 0.0129869 0.0151747 0.00526333 -0.0298314 0.00643868 -0.00137512 -0.00063589 -0.0107041 -0.0473572 -0.00833899 0.00556166 0.0030475 0.00938273 0.000134802 0.000148675 -0.00364069 -0.0186893 -0.0249258 0.012516 -0.00258467 0.00198476 -0.0109003 -0.0135223 0.0182525 0.0167172 0.0204522 -0.01723 0.0140147 0.00886465 0.021797 0.0128622 0.0134372 0.010774 -0.00530045 0.012368 0.00967665 -0.0446697 -0.00546701 -0.00620763 0.026355
internal_weight=59595.7 37969.9 21625.8 29631.4 8338.5 8660.66 12965.1 16980.4 12651 12108 4326.12 4012.38 16672.6 5392.79 12212 4275.98 3168.57 8366.15 8306.45 7436.19 3743.04 3013.62 843.807 791.675 420.433 4201.18 2465.9 674.979 7171.08 517.495 3267.87 6999.21 5040.9 3070.09 1790.92 418.009 6653.59 2171.34 5108.76 965.678 5840.55 362.392 4482.25 3698.26 2320.25 3693.15 3035.78 1631.24 4143.08 4533.06 387.398 1551.36 3706.59 3582.88 2121.49 151.838 1404.54 1090.25 2321.93 3300.95 3137.53 371.242
